#include "StewartForwardKinematicsNeuralNetwork.h"


static const float POSITION_WEIGHTS_DATA_0[] = { 0.23802721500396729, -0.22701796889305115, -0.4986175000667572, -0.6828158497810364, -0.4983736574649811, 0.16495509445667267, 0.18729479610919952, 0.2264821082353592, -0.8887340426445007, 0.003759108716621995, -0.1291903406381607, -0.12369439005851746, 0.5051726698875427, -0.022802213206887245, -0.09888462722301483, 0.12206105887889862, 0.2593395411968231, 0.5492635369300842, 0.004808270838111639, 0.15594534575939178, 0.0879095047712326, 0.011830884963274002, -0.2382117062807083, -0.028520431369543076, -0.1528216004371643, -0.18918634951114655, 0.01238820981234312, -0.7850447297096252, 0.31468379497528076, 0.11981680244207382, -0.04113943129777908, -0.10881783813238144, 0.08360883593559265, 1.1082878112792969, 1.4671136140823364, 0.30840814113616943, 0.5555565357208252, 0.6175636649131775, 0.48323163390159607, -0.12981106340885162, -0.15129537880420685, 0.36357155442237854, 1.215049147605896, 0.7316830158233643, 0.3427301049232483, 0.0874268189072609, 0.15967051684856415, 0.8563632369041443, -0.9878803491592407, -0.9145177006721497, -0.4034784138202667, 0.05026140809059143, -0.0779411718249321, -0.8021146655082703, 1.3606051206588745, 1.452034831047058, -0.01234960276633501, -0.7619620561599731, -0.8823208212852478, -0.6086868047714233, -0.5113356113433838, -0.35750946402549744, -0.2751956582069397, 0.0192717295140028, -0.07896628230810165, -0.47147971391677856, 0.34310176968574524, 0.36093488335609436, 0.3766271471977234, 0.3737579882144928, 0.33509722352027893, 0.3507440388202667, 0.6200785040855408, -0.33184972405433655, -0.8213794231414795, -1.0386958122253418, -0.6412764191627502, 0.5290708541870117, -0.039930056780576706, 0.8875636458396912, -0.20047172904014587, -0.13897570967674255, 0.14658024907112122, 0.15540426969528198, 0.02176937647163868, -0.23365119099617004, -0.11344525963068008, 0.20722055435180664, 0.0002592652745079249, 0.06333399564027786, 0.5988109707832336, -0.20751969516277313, -0.25859445333480835, 0.5302591919898987, 0.9724165797233582, 0.9992304444313049, -1.521721601486206, -0.38878703117370605, -0.030002903193235397, 0.32100531458854675, -0.17873729765415192, -1.7763605117797852, -0.20261363685131073, -0.031300827860832214, 0.12420051544904709, 0.9534796476364136, 0.9814484715461731, 0.11690068244934082, 0.09412752836942673, -0.04318920522928238, -0.15358908474445343, -0.07412576675415039, -0.05310237035155296, 0.2850979268550873, 0.1585713028907776, 0.6240536570549011, 0.6327899098396301, 0.16808271408081055, -0.020383192226290703, 0.04244903475046158, -0.18981947004795074, -0.14338545501232147, 0.15095984935760498, 0.12085159868001938, -0.004346680827438831, 0.9527521729469299, 0.22384898364543915, 0.15298129618167877, -0.091843381524086, -0.12973740696907043, -0.03482824191451073, -0.7719493508338928, -0.07485663145780563, -0.05686398968100548, 0.05459010228514671, 0.15702009201049805, -0.38277924060821533, 0.019941434264183044, 0.5053694248199463, -0.26824134588241577, -1.3470194339752197, -1.0759344100952148, 0.683471143245697, 1.1728665828704834, -0.17756502330303192, -0.951114296913147, -0.8611055016517639, -0.22400377690792084, -0.13130907714366913, 0.027156895026564598, -0.1600155085325241, -0.06194635108113289, -0.15772996842861176, -0.6457153558731079, -0.5595319867134094, -0.6323460340499878, 0.0007226447924040258, -0.8512822389602661, 0.26008695363998413, 0.19887147843837738, -0.1232791319489479, -0.20480328798294067, -0.5951531529426575, -0.6072314381599426, 0.14522290229797363, 0.4364442825317383, 0.527556300163269, 0.15482288599014282, -0.16054408252239227, 0.5543920993804932, 0.9799962639808655, 0.8147341012954712, 0.44500744342803955, -0.03782401233911514, -0.8382471799850464, 0.2693110406398773, 0.3892638683319092, 0.08671991527080536, -0.38918405771255493, -1.076640248298645, -0.6953984498977661, -0.43760576844215393, 0.08658187836408615, 2.1108617782592773, 2.3787693977355957, 0.13865859806537628, -0.3092547655105591, -2.410982131958008, -1.9276974201202393, -0.2556271553039551, 0.1357363909482956, 0.3163514733314514, -0.4685957729816437, 0.24918889999389648, 1.249103307723999, 1.0035266876220703, -0.6348500847816467, -1.081925392150879, -0.3826271593570709, 0.2600642144680023, -0.291804701089859, 0.2906085252761841, -0.28826168179512024, 0.18282461166381836, 0.0951702669262886, 0.013115956448018551, 0.0790829285979271, -0.15663152933120728, 0.06108252704143524, 0.028453795239329338, -0.05804125964641571, 0.4178085923194885, 0.5918210744857788, 0.6034389734268188, 0.40291014313697815, -0.05598917976021767, -0.2659924328327179, 0.1169910803437233, 0.041700076311826706, -0.4271273612976074, -0.5333081483840942, -0.3782009780406952, 0.41576188802719116, -0.2837091088294983, 0.3120327591896057, -0.3106495141983032, 0.3125549256801605, -0.1961381882429123, 0.17839539051055908, 1.0242851972579956, 1.1998625993728638, 0.2242642641067505, -0.16338986158370972, 0.0034755468368530273, -0.33102282881736755, -0.3087669312953949, -0.34152671694755554, -0.42249980568885803, -0.3571935296058655, -0.3209817409515381, -0.15488062798976898, -0.32091954350471497, 0.8468765616416931, -0.017643893137574196, 0.18656687438488007, 0.12640824913978577, 0.7694371938705444, -0.041507236659526825, 0.1429726630449295, 0.13264696300029755, -0.12602676451206207, -0.31190618872642517, -0.16584628820419312, 0.039220985025167465, 0.3976251780986786, 0.3152889907360077, -0.23717206716537476, -0.37407922744750977, -0.182673379778862, 0.022927917540073395, 0.486007422208786, 0.39225950837135315, -0.31785205006599426, -0.4926798343658447, 0.06727299094200134, 0.07114123553037643, -0.10007090121507645, -0.14160478115081787, 0.5602707862854004, -0.010154678486287594, -0.07787037640810013, -0.4775365889072418, -0.49067386984825134, -0.27405163645744324, -0.2624044716358185, -0.04150819405913353, -0.3323180675506592, -0.6099174618721008, -0.611677348613739, 0.026722125709056854, 0.1232251450419426, -0.12385521084070206, -0.8727439641952515, 0.03919605910778046, -0.14135023951530457, -0.19800743460655212, 0.13743345439434052, 0.2510144114494324, 0.1569373607635498, 0.12988682091236115, -0.05912709981203079, 0.8955052495002747, -0.22393378615379333, -0.15865758061408997, 1.3077811002731323, -0.2163001447916031, -0.5688081383705139, -0.20531058311462402, 0.1157674789428711, 1.343064308166504, 0.02983825094997883, 0.532289981842041, 0.22761543095111847, -0.8484423756599426, -0.8904637694358826, -0.22881121933460236, -0.42574605345726013, -0.4240986704826355, 0.04967604577541351, 0.2642477750778198, 0.3467540740966797, 0.14730975031852722, 0.4969179332256317, 0.5310368537902832, -0.02727259136736393, -0.33492738008499146, -0.4434610605239868, -0.28095296025276184, -0.7696942090988159, -0.2995617985725403, -0.19411484897136688, 0.1142997145652771, -0.10661036521196365, -0.864879846572876, -0.5711990594863892, 0.1124807819724083, 0.16221806406974792, -0.13328585028648376, -0.37111830711364746, -0.6958398818969727, -0.19557707011699677, 0.4253130853176117, 0.2415355145931244, -0.9144859313964844, -1.0093066692352295, -0.5869179368019104, 0.31846505403518677, -0.138649120926857, -0.10208635777235031, 0.41358599066734314, 0.616291880607605, 0.5516241788864136, 0.15807507932186127, 0.12221340090036392, 0.07033102214336395, 0.1376923769712448, 0.05338864028453827, 0.006132810842245817, -0.09745220839977264, 0.1269731968641281, 0.27459630370140076, 0.6096456050872803, 0.5625735521316528, 0.04554808884859085, -1.3011248111724854, -1.3879369497299194, 0.01725393533706665, 0.7460514307022095, 0.8649058938026428, 0.5857623219490051, -0.28944990038871765, 0.33915191888809204, 0.7453697323799133, 1.0934804677963257, 1.1699992418289185, -0.08311088383197784, 0.6669476628303528, -0.029298832640051842, -0.21357755362987518, 0.025232598185539246, 0.15795373916625977, 0.7255744338035583, -0.5081135630607605, -1.0377373695373535, -0.8727093935012817, 0.3687078058719635, 0.5262321829795837, 0.0019953420851379633, -0.0648391842842102, -1.2769138813018799, -0.883355975151062, -0.2721274197101593, 0.15340879559516907, 0.14676426351070404 };
static const Eigen::Map<const Eigen::Matrix<float, 64, 6, Eigen::RowMajor>> POSITION_WEIGHTS_0(POSITION_WEIGHTS_DATA_0);
static const float POSITION_BIASES_DATA_0[] = { -0.3800714910030365, -0.4259985387325287, 0.039643917232751846, -0.34918972849845886, -0.49950313568115234, -1.9885458946228027, -0.46970680356025696, -0.9743202924728394, -0.9021514654159546, -0.3234628736972809, 0.02947084978222847, -0.16502279043197632, -1.215528964996338, -0.433096319437027, -0.4801482558250427, -1.0123268365859985, -1.4288395643234253, -0.5365769267082214, -0.4096201956272125, -0.15448793768882751, -0.4475944936275482, -0.41582706570625305, 0.21260719001293182, -0.3167317807674408, -0.5674725770950317, -1.1958723068237305, -0.48503363132476807, -0.5964208245277405, -0.838942289352417, -1.0196187496185303, -2.320814371109009, -2.284142255783081, 0.29486367106437683, 0.12167857587337494, -0.4447198510169983, -0.2988152801990509, 0.002970232628285885, -0.12970276176929474, -0.852042019367218, -0.18213269114494324, -0.5236793756484985, -0.4817158281803131, -0.11125695705413818, -0.44127246737480164, 0.2517614960670471, -0.0490613728761673, -0.2239121049642563, -0.4321322441101074, -0.4260929226875305, -1.1469066143035889, -0.7203147411346436, -0.1371811181306839, -0.4591858685016632, -0.3884756565093994, -0.3513905704021454, -0.9640175104141235, -0.29821011424064636, -0.32084131240844727, -0.014789331704378128, 0.31752318143844604, -1.147523045539856, -0.28403621912002563, -0.9749282598495483, -1.717743158340454 };
static const Eigen::Matrix<float, 64, 1> POSITION_BIASES_0(POSITION_BIASES_DATA_0);

static const float POSITION_WEIGHTS_DATA_1[] = { -0.16147439181804657, -0.016655543819069862, -0.11817857623100281, -0.15013393759727478, 0.010626561008393764, 0.11581235378980637, -0.023870345205068588, 0.045365553349256516, 0.06298567354679108, -0.1590128391981125, -0.24100063741207123, -0.154945969581604, -0.09910758584737778, -0.07674688845872879, 0.03483537957072258, 0.059259019792079926, -0.10762818157672882, -0.25179028511047363, 0.03594110906124115, -0.26004964113235474, -0.1104816421866417, -0.20528027415275574, -0.14683490991592407, -0.15797996520996094, -0.05013580247759819, 0.038557592779397964, -0.3045783042907715, -0.04644767940044403, -0.14736172556877136, -0.10711301118135452, -0.1477455049753189, -0.016543926671147346, -0.2768867611885071, -0.19769810140132904, 0.07960818707942963, -0.20306596159934998, -0.2790406346321106, -0.11634489893913269, -0.046331703662872314, -0.1110745221376419, -0.053516410291194916, -0.1545315980911255, -0.4012742340564728, -0.15829861164093018, -0.10189235955476761, -0.030239541083574295, 0.00816681794822216, -0.06327632814645767, -0.2871292531490326, -0.13277514278888702, -0.33863991498947144, -0.004683464765548706, -0.12964345514774323, -0.11202603578567505, -0.0951416864991188, -0.18311871588230133, 0.03625570237636566, 0.022178271785378456, -0.2185717672109604, -0.29781651496887207, -0.1402195245027542, -0.12924304604530334, 0.02460264228284359, 0.027074886485934258, -0.0514243058860302, -0.03357471153140068, -0.13660943508148193, -0.20086652040481567, -0.10227663069963455, -0.14311343431472778, 0.05193869769573212, -0.15630629658699036, -0.1688758134841919, -0.003812158480286598, -0.10434436798095703, 0.04339199885725975, -0.1511976420879364, -0.10710906982421875, 0.0017670094966888428, -0.020238656550645828, -0.18661347031593323, -0.13884662091732025, -0.07405334711074829, -0.006917514372617006, 0.04112418740987778, -0.025175439193844795, 0.05493754521012306, -0.1311868131160736, -0.040790874511003494, -0.0969119668006897, 0.050933632999658585, 0.019041119143366814, 0.08109566569328308, -0.06151491776108742, -0.011786356568336487, 0.014934993349015713, -0.022912131622433662, 0.015692565590143204, -0.015142813324928284, -0.16719891130924225, 0.003910875413566828, -0.03879230096936226, -0.11840931326150894, -0.08582104742527008, -0.17964008450508118, -0.110531285405159, -0.1280876100063324, -0.12019273638725281, 0.04274911805987358, -0.17890457808971405, -0.0658857449889183, -0.03746314346790314, -0.07737988978624344, -0.028329147025942802, -0.025063661858439445, -0.16062435507774353, -0.14828157424926758, -0.04926822707056999, -0.04602060839533806, -0.14825208485126495, -0.10288246721029282, 0.029300402849912643, -0.03145568072795868, -0.06422755867242813, 0.011603856459259987, -0.0015370972687378526, 0.07830211520195007, -0.04660263657569885, 0.07850871980190277, 0.04892050474882126, 0.04540177434682846, -0.031119531020522118, -0.004372037015855312, 0.13960911333560944, 0.04974684491753578, -0.26382118463516235, 0.15244387090206146, 0.798359215259552, -0.03806425258517265, -0.13710908591747284, -0.06467963755130768, -0.06658122688531876, -0.06791949272155762, 0.14742498099803925, -0.07843844592571259, -0.09224756807088852, 0.12247887998819351, 0.006363255903124809, -0.01343686692416668, -0.03460223972797394, 0.05201765149831772, -0.004506929311901331, -0.00805455632507801, -0.39769643545150757, -0.019935214892029762, -0.135793074965477, 0.028718966990709305, 0.02147216536104679, -0.06484229862689972, 0.010076673701405525, -0.017193187028169632, -0.004725147504359484, 0.11691226810216904, 0.12082429230213165, 0.12849658727645874, 0.005110725294798613, 0.03167727589607239, -0.016770556569099426, 0.01364062074571848, -0.030008234083652496, -0.01415109820663929, -0.010204480029642582, 0.016856536269187927, 0.045950066298246384, -0.07573085278272629, 0.024902798235416412, 0.05026278272271156, 0.04666205495595932, -0.04255862534046173, -0.05769263207912445, 0.06239110976457596, -0.0825938805937767, 0.0789594054222107, 0.28520047664642334, 0.17876482009887695, -0.0842248797416687, -0.0176197811961174, -0.02528758905827999, 0.15059421956539154, -0.06753559410572052, 0.12120318412780762, 0.4607486128807068, 0.04295483976602554, -0.02021237090229988, -0.06287268549203873, 0.02132604457437992, 0.028394103050231934, -0.0633663609623909, -0.10200711339712143, -0.07425706833600998, 0.17886576056480408, 0.2807787358760834, -0.16201923787593842, -0.28910624980926514, 0.05990185588598251, -0.10088496655225754, -0.04776497930288315, 0.12685741484165192, -0.17285864055156708, -0.147944837808609, -0.028742020949721336, 0.08346288651227951, 0.02173605002462864, 0.06734364479780197, 0.1310088336467743, -0.08481021225452423, -0.17708905041217804, 0.0018463385058566928, 0.12089776247739792, -0.34908759593963623, 0.08839330077171326, 0.059433840215206146, -0.19068363308906555, -0.19244828820228577, -0.04940522462129593, 0.689636766910553, -0.12053628265857697, -0.004045878071337938, 0.023253250867128372, -0.6334348917007446, -0.04608253017067909, -0.26910218596458435, 0.07262454926967621, 0.011316071264445782, -0.41552823781967163, -0.2824290692806244, -0.14040644466876984, -0.12173323333263397, 0.09653544425964355, 0.03629545122385025, 0.0434771366417408, -0.07062879949808121, 0.03062841109931469, -0.384371280670166, -0.34878048300743103, -0.1075226292014122, -0.03485909476876259, -0.05046568438410759, 0.0543254017829895, -0.02735297940671444, -0.052892979234457016, -0.310616672039032, -0.025793181732296944, -0.08447536826133728, 0.10718155652284622, -0.003992580808699131, -0.28224703669548035, -0.2993376553058624, -0.40632006525993347, 0.06071556359529495, 0.0016560012008994818, -0.013869484886527061, -0.03839955851435661, -0.33486035466194153, -0.12006017565727234, -0.20033609867095947, -0.16579444706439972, -0.15366923809051514, -0.047429297119379044, -0.05757845938205719, -0.15587779879570007, 0.05113241448998451, 0.04697138071060181, -0.09593420475721359, 0.04487597942352295, -0.32685622572898865, -0.1286224126815796, -0.37944677472114563, -0.2344360202550888, -0.3568146228790283, -0.17046988010406494, -0.1541844606399536, -0.05578378960490227, -0.13137882947921753, 0.023283829912543297, -0.158575177192688, -0.11779186874628067, 0.007592072244733572, -0.46648266911506653, -0.18626467883586884, 0.06053164601325989, 0.025563668459653854, -0.4408652186393738, -0.4379155933856964, -0.1301286220550537, -0.03503716364502907, -0.06607092916965485, -0.08510905504226685, -0.10542087256908417, 0.029854418709874153, -0.3323783576488495, -0.31047722697257996, -0.022176479920744896, -0.3575880527496338, -0.19230592250823975, -0.11547213047742844, -0.22176848351955414, -0.014894789084792137, -0.3640270531177521, 0.014514852315187454, 0.21988476812839508, -0.315417617559433, -0.047901351004838943, 0.04008833318948746, -0.17649991810321808, -0.043136097490787506, -0.06224842369556427, -0.46518152952194214, -0.10080543905496597, -0.07785109430551529, -0.3335359990596771, -0.24176780879497528, 0.28612130880355835, -0.1366688758134842, -0.1683652400970459, 0.04002126678824425, -0.07073694467544556, 0.102759450674057, 0.16495966911315918, 0.005314743146300316, -0.20358778536319733, -0.1230432465672493, -0.37412574887275696, 0.049172282218933105, -0.0821806937456131, -0.22027075290679932, -0.30439019203186035, -0.2216455191373825, -0.02353770099580288, 0.01972777768969536, -0.20584677159786224, 0.21233856678009033, -0.27703091502189636, 0.9042855501174927, 0.18583530187606812, 0.02968018129467964, -0.14121291041374207, -0.06700676679611206, -0.9102444648742676, -0.12799082696437836, -0.1890198290348053, 0.18873091042041779, -0.9915623664855957, 0.22573556005954742, 0.0637730062007904, 0.47895368933677673, -0.0381234772503376, -0.17934101819992065, 0.1317795366048813, -0.21899189054965973, 0.19505292177200317, -0.047611355781555176, -0.1611122339963913, -0.6135098934173584, 0.12869644165039062, 0.2932545840740204, 0.07114475965499878, 0.12432852387428284, 0.11834858357906342, 0.23580124974250793, -0.2549067437648773, -0.02836182713508606, -0.06769038736820221, -0.16595874726772308, 0.23277708888053894, 0.4297492802143097, -0.15950505435466766, -0.06404146552085876, -0.2182481437921524, 0.041116271167993546, 0.17651060223579407, 0.27308154106140137, 0.06903079897165298, -0.46264877915382385, 0.1565001755952835, 0.03977742791175842, 0.170162171125412, 0.0420081689953804, 0.08683013916015625, 0.10984590649604797, 0.26658838987350464, -0.18606972694396973, -0.12178078293800354, -0.06963162869215012, 0.09784063696861267, -0.10659808665513992, -0.01308573130518198, 0.1510286033153534, 0.00028882003971375525, -0.04947579652070999, -0.0029162780847400427, 0.13366584479808807, -0.11225495487451553, -0.23239894211292267, -0.054655417799949646, 0.011996050365269184, -0.13055267930030823, -0.13939528167247772, 0.08885454386472702, -0.021571723744273186, -0.11880169063806534, -0.1367049664258957, -0.12331508845090866, 0.1854938566684723, 0.10032094269990921, 0.07844701409339905, 0.11547645926475525, 0.13805042207241058, 0.008714266121387482, 0.01797068491578102, -0.1871265470981598, -0.1162697896361351, -0.21229109168052673, -0.11371742933988571, -0.0024442339781671762, 0.13571412861347198, -0.07891128212213516, -0.06042453646659851, 0.24630042910575867, 0.05928024649620056, -0.21948981285095215, -0.1764415055513382, -0.1238921582698822, 0.0269129890948534, -0.3654985725879669, -0.09651719033718109, 0.05832682549953461, 0.0012643805239349604, 0.19939595460891724, 0.4874569773674011, -0.1567971110343933, -0.058084115386009216, 0.12877240777015686, 0.7283568382263184, 0.06918100267648697, 0.03977705538272858, -0.16840343177318573, 0.3446809947490692, -0.4619361460208893, -0.2576189339160919, -0.2643308639526367, -0.11422257125377655, -0.07262162864208221, -0.1114165261387825, -0.2991378605365753, -0.28264787793159485, -0.16350649297237396, -0.20694957673549652, -0.1330745667219162, -0.3060407340526581, -0.2625006437301636, -0.1961210072040558, 0.11235563457012177, -0.4399820566177368, -0.020862353965640068, -0.07179201394319534, -0.1615225076675415, -0.29586729407310486, -0.10600314289331436, -0.2437593638896942, -0.2832384705543518, -0.13586606085300446, -0.16505391895771027, -0.05721716955304146, -0.08002279698848724, 0.05554772540926933, -0.09573563933372498, -0.07852102816104889, -0.06896402686834335, 0.03140604496002197, -0.07945001870393753, -0.2857989966869354, 0.05114263296127319, -0.05511052906513214, -0.4004111886024475, -0.14673319458961487, -0.07989251613616943, -0.22105300426483154, -0.14293403923511505, -0.08322832733392715, -0.02793678641319275, -0.03575705364346504, -0.3871840238571167, -0.28187108039855957, -0.06795559078454971, -0.28419315814971924, -0.018068958073854446, -0.11004367470741272, -0.2727593779563904, 0.02576609142124653, -0.30928048491477966, -0.012764581479132175, -0.08164779096841812, -0.4104624092578888, -0.2784312069416046, 0.052099063992500305, -0.09896797686815262, -0.37610697746276855, -0.0283985435962677, -0.44455739855766296, -0.006578728556632996, -0.07702699303627014, -0.366399347782135, -0.4090910255908966, -0.6924629807472229, -0.022054482251405716, -0.1015765443444252, -0.13080592453479767, -0.5711501240730286, -0.3861538767814636, 0.39741426706314087, -0.12526223063468933, -0.09041336923837662, -0.8786351084709167, -0.2304902821779251, -0.49346378445625305, -0.019152116030454636, -0.4993768632411957, -1.9350084066390991, 0.0426054410636425, 0.04379233717918396, 0.8587683439254761, -0.2778457701206207, -0.16031260788440704, 0.2853683829307556, 0.29010099172592163, 0.49472832679748535, -1.8272061347961426, -0.4921555519104004, -0.707308828830719, 0.7789297699928284, -1.2452833652496338, -0.10005135089159012, 0.6413488388061523, -0.6622006297111511, -0.8245731592178345, 0.04284095764160156, -0.03834809735417366, -0.4827125668525696, 0.55417799949646, 0.27104926109313965, -0.4361107349395752, -0.5739139318466187, -0.36601561307907104, -0.28006407618522644, -1.8162364959716797, -0.9467355012893677, 0.5799407362937927, -0.7047086358070374, 0.571675717830658, 0.09059318900108337, 0.4842156767845154, 0.4384371340274811, -0.6204439997673035, -0.2455541491508484, -0.11947362124919891, -1.5399823188781738, 0.3846588134765625, -2.1507580280303955, 0.05881049111485481, -1.2515919208526611, -0.3353601098060608, 0.6057224869728088, 0.005492750089615583, -1.5067481994628906, -0.5739713311195374, 0.0022173328325152397, 0.07508841156959534, -0.3301999568939209, -0.013086304068565369, 0.08070836216211319, -0.003417747328057885, -0.1734452247619629, -0.07715635001659393, -0.10597001761198044, -0.41481465101242065, -0.3245486915111542, -0.032744526863098145, -0.004401594400405884, -0.2051086276769638, 0.052276045083999634, -0.08963623642921448, 0.057226862758398056, -0.10453186184167862, -0.06765015423297882, -0.22671367228031158, -0.12239178270101547, -0.25678810477256775, -0.19222798943519592, 0.04039350152015686, -0.1112988293170929, 0.0007209628820419312, 0.007825690321624279, -0.04040512442588806, -0.2318958044052124, -0.11087381094694138, -0.08032219856977463, -0.16677327454090118, -0.18181675672531128, -0.07875905185937881, 0.08079005777835846, -0.3576861023902893, -0.26927050948143005, -0.2019241452217102, -0.5341354012489319, 0.0638936460018158, 0.024980375543236732, -0.16167165338993073, -0.18767528235912323, -0.09158127754926682, -0.26023009419441223, -0.12064514309167862, -0.1374494731426239, -0.07287359237670898, -0.13463562726974487, 0.05928299203515053, -0.10829509794712067, 0.08975071460008621, -0.3858416676521301, -0.3892115652561188, -0.15782049298286438, -0.17512813210487366, -0.13866282999515533, 0.10829190909862518, -0.33886855840682983, -0.3674888014793396, 0.07401798665523529, -0.04464211314916611, -0.16095271706581116, 0.04094223305583, -0.10834138840436935, 0.04072751849889755, -0.048211704939603806, -0.10816965252161026, -0.012819292955100536, -0.02969961427152157, -0.10220955312252045, -0.05741579830646515, -0.18051084876060486, -0.17296864092350006, -0.14618176221847534, -0.37049010396003723, -0.08081646263599396, -0.14367185533046722, -0.1629726141691208, -0.06338385492563248, -0.14196811616420746, -0.40128546953201294, 0.04809344559907913, -0.2487625628709793, -0.047564126551151276, -0.11678306013345718, -0.2354716807603836, -0.035360053181648254, -0.016114775091409683, -0.08227783441543579, -0.12831906974315643, -0.4418845474720001, -0.4192284643650055, -0.009096380323171616, -0.015657858923077583, -0.1747463047504425, -0.3754884600639343, -0.34881335496902466, 0.10278663039207458, -0.277016282081604, -0.024067267775535583, -0.0029248828068375587, -0.243129163980484, -0.12203349173069, -0.3205651640892029, -0.05744798853993416, -0.17098066210746765, -0.26298922300338745, -0.4063856601715088, -0.007607582025229931, 0.02804112248122692, 0.02040308155119419, -0.007982209324836731, -0.14501425623893738, -0.39996951818466187, -0.22227104008197784, -0.15070569515228271, -0.011362292803823948, -0.026381969451904297, -0.060094043612480164, 0.0040258197113871574, 0.028295457363128662, -0.24418218433856964, -0.24174928665161133, -0.17607653141021729, 0.025598278269171715, -0.03447834402322769, -0.047407981008291245, -0.05839221179485321, 0.11530421674251556, -0.0528033971786499, -0.0017094463109970093, -0.07691547274589539, -0.03506084531545639, -0.09751319885253906, -0.009002476930618286, 0.09763731062412262, 0.015649884939193726, -0.08718879520893097, -0.02185564488172531, -0.007979467511177063, -0.06348967552185059, 0.07580189406871796, 0.09435835480690002, -0.04295474290847778, -0.18155065178871155, 0.1069871038198471, -0.07918775081634521, -0.11798878014087677, -0.06032399460673332, -0.01059877872467041, -0.045827776193618774, -0.054809629917144775, -0.09839390218257904, -0.0928005650639534, -0.16240061819553375, -0.11161068081855774, -0.014318510890007019, -0.06788313388824463, -0.12040625512599945, -0.0009515705169178545, -0.04921261966228485, 0.0010462552309036255, 0.021953782066702843, -0.17913897335529327, -0.02744416333734989, 0.054688919335603714, 0.008787080645561218, -0.10334035754203796, 0.00665888749063015, 0.0649120956659317, -0.13619928061962128, -0.05576026812195778, 0.04743789881467819, -0.10782915353775024, -0.06645391881465912, 0.017384961247444153, -0.008715033531188965, -0.10267850756645203, -0.017219632863998413, 0.10797283053398132, -0.04077914357185364, -0.10819856077432632, -0.019519517198204994, 0.10289785265922546, -0.08891239762306213, 0.05760655924677849, -0.03627386689186096, -0.05852013826370239, -0.13109153509140015, -0.03365354239940643, 0.07660043239593506, -0.24479664862155914, 0.07826113700866699, -0.2959808111190796, -0.10570105910301208, -0.27217918634414673, -0.32441282272338867, -0.3396853506565094, -0.06710247695446014, -0.29385316371917725, -0.23238807916641235, -0.158010795712471, -0.28911247849464417, -0.11088396608829498, -0.2413754016160965, -0.11568622291088104, -0.16309261322021484, -0.2817241847515106, -0.3136313855648041, -0.064295694231987, -0.14595715701580048, -0.16682735085487366, -0.26180168986320496, -0.22030232846736908, -0.3091707229614258, -0.34645387530326843, -0.06223940849304199, -0.27088674902915955, -0.1603158414363861, -0.23494817316532135, -0.13684424757957458, -0.25906437635421753, -0.12315946817398071, -0.25541284680366516, -0.3300183117389679, -0.07924899458885193, -0.1185714453458786, -0.3414277732372284, -0.27638840675354004, -0.2089592069387436, 0.1017492413520813, -0.12796403467655182, -0.12454908341169357, -0.2803616523742676, -0.11900158226490021, -0.1932874321937561, -0.19893741607666016, -0.15920157730579376, -0.23505499958992004, -0.30701470375061035, -0.3192104995250702, -0.1907162368297577, -0.271787166595459, -0.09058980643749237, -0.2712875008583069, -0.2511689364910126, -0.13027605414390564, -0.29392656683921814, -0.08417969942092896, -0.15436656773090363, -0.30628612637519836, -0.32240647077560425, -0.2751193642616272, -0.26418641209602356, -0.25018376111984253, 0.05407913029193878, -0.2813740074634552, -0.1097206100821495, 0.05086609721183777, -0.17516261339187622, 0.032846320420503616, -0.1441701054573059, 0.034664250910282135, 0.0018252060981467366, -0.2607146203517914, -0.03343193605542183, -0.17399831116199493, -0.14290675520896912, -0.1689729541540146, -0.13090632855892181, 0.048291534185409546, 0.08113858103752136, -0.02220541425049305, -0.00971171259880066, -0.02857653610408306, -0.07783825695514679, -0.257858544588089, -0.16797688603401184, -0.32995155453681946, -0.173856720328331, 0.021763069555163383, 0.007451555225998163, 0.06716615706682205, 0.06301010400056839, -0.10023516416549683, 0.024618664756417274, -0.10931846499443054, 0.003980612847954035, -0.08720023930072784, -0.11622922122478485, -0.14905747771263123, -0.17234690487384796, -0.04665312543511391, -0.0066510033793747425, 0.03503437712788582, -0.13697084784507751, -0.1113905981183052, -0.13355998694896698, 0.02114691026508808, 0.010119695216417313, -0.14541412889957428, -0.11246071755886078, -0.12571874260902405, -0.14008751511573792, -0.08000191301107407, -0.0077860415913164616, -0.06400395929813385, -0.1469363570213318, -0.17914070188999176, -0.12574855983257294, 0.024702977389097214, 0.02385615184903145, -0.11574478447437286, -0.172074094414711, -0.14424660801887512, -0.002775096334517002, -0.0005107506294734776, -0.09108404815196991, -0.1748417168855667, -0.5207008123397827, -0.3517310321331024, 0.03941924497485161, -0.0810842290520668, 0.12536975741386414, 0.46587029099464417, -2.324951171875, 0.022090334445238113, -0.010275821201503277, -0.13286161422729492, -0.19146351516246796, -1.3685649633407593, -0.3872587978839874, -0.16469243168830872, -0.009304777719080448, 0.82061767578125, -0.3234872817993164, -0.33397531509399414, -0.05467331409454346, -1.1320455074310303, -0.6755445599555969, -0.45168808102607727, -0.8847180604934692, -1.30686616897583, -2.1227967739105225, 0.29826730489730835, -0.5536179542541504, -0.046664897352457047, 0.3515607416629791, -0.1912340223789215, -0.015232355333864689, -0.5164402723312378, -0.15800850093364716, 0.10203809291124344, 0.109304279088974, 0.02296455390751362, -0.046403687447309494, -0.4257296621799469, -0.15980197489261627, -0.07841911911964417, -0.3118622601032257, -0.214664489030838, -0.5398468375205994, 0.0657043308019638, -0.2308979481458664, -1.5411896705627441, -0.0760931670665741, -0.27740076184272766, -0.31950148940086365, 1.1502691507339478, -0.5153130888938904, -0.01846023090183735, -0.2674463391304016, -0.24593491852283478, -0.33705246448516846, -0.590470016002655, 0.2418816238641739, -0.06737326085567474, 0.045830339193344116, -0.31374889612197876, 0.4649045765399933, -0.36660176515579224, 0.5961079597473145, -0.34054166078567505, 0.07282935082912445, -0.135031059384346, -0.5841400623321533, 0.05858583003282547, -0.2677918076515198, 0.12381304055452347, -0.7046438455581665, -0.15445858240127563, 0.42529061436653137, 0.1825970709323883, -0.24935348331928253, 0.09502577036619186, 0.2490100860595703, -0.3393801152706146, -0.011895788833498955, -0.0590185709297657, -0.3661005198955536, -1.0140491724014282, 0.17308397591114044, 0.5970374345779419, 0.1954338550567627, -0.12279580533504486, 0.3656938374042511, 0.29706358909606934, -0.2076025903224945, 0.576622486114502, 0.3850506842136383, -0.5652346611022949, 0.5221511721611023, 0.02161184884607792, -0.2695675790309906, -1.953676700592041, -0.2644246518611908, -0.3040250539779663, -0.04221126437187195, 0.7042943835258484, 0.6321538686752319, 0.27603358030319214, 0.39560219645500183, 0.3334027826786041, 0.05041491612792015, -0.25181710720062256, 0.08165917545557022, 0.06290644407272339, -0.5210018157958984, -0.41120561957359314, 0.5379197001457214, 0.33667048811912537, 0.27091264724731445, -0.27559694647789, 0.43896639347076416, 0.011955815367400646, -0.18327613174915314, 0.1457197517156601, -0.6916388273239136, -0.3496410548686981, 0.011681140400469303, 0.06896554678678513, -0.9723683595657349, -1.7137218713760376, 0.24871712923049927, -0.302918016910553, -0.07740486413240433, -0.022745536640286446, -0.11904995888471603, -0.06176913529634476, 0.0003177096077706665, -0.13714458048343658, -0.10808538645505905, -0.123162642121315, -0.11679981648921967, 0.061477530747652054, -0.056315828114748, -0.20995499193668365, -0.10564254969358444, 0.009393427520990372, -0.20060761272907257, -0.1267513483762741, -0.09232282638549805, 0.001969843404367566, -0.20575936138629913, -0.025605663657188416, -0.07039068639278412, -0.056688614189624786, -0.20807906985282898, -0.14401496946811676, -0.18385261297225952, -0.015130867250263691, -0.12815800309181213, -0.004952143877744675, -0.10759478062391281, -0.18041110038757324, -0.14857551455497742, -0.008845583535730839, -0.09029137343168259, 0.09181490540504456, -0.18516705930233002, -0.1032673791050911, -0.08351004123687744, 0.04469514265656471, 0.02423408068716526, -0.0008605045732110739, -0.004267064854502678, -0.08058023452758789, 0.01952415145933628, -0.17999763786792755, -0.19973084330558777, -0.0017060345271602273, -0.19484978914260864, 0.027791105210781097, -0.216971293091774, -0.011028322391211987, -0.09862212836742401, -0.05239584296941757, -0.20522965490818024, -0.0486878827214241, -0.04768481105566025, -0.11853887140750885, 0.020157216116786003, -0.09045287221670151, -0.16980265080928802, 0.00910216849297285, -0.052717968821525574, -0.10556144267320633, -0.024542098864912987, -0.13623178005218506, 0.01633310504257679, 0.01633920520544052, -0.11289418488740921, -0.1609361469745636, 0.013091127388179302, -0.10560096800327301, -0.009352073073387146, -6.713773473165929e-05, -0.05552218481898308, 0.050927624106407166, -0.00020764664805028588, -0.17329373955726624, -0.10605134814977646, -0.03284350037574768, -0.058219924569129944, -0.046195175498723984, -0.03906887397170067, 0.04517388343811035, -0.07461021840572357, -0.054508596658706665, 0.12114615738391876, -0.0136270672082901, 0.01567338965833187, -0.1695503145456314, -0.14226780831813812, -0.14290466904640198, -0.036932043731212616, -0.024196311831474304, 0.0321398563683033, -0.039594680070877075, 0.034085486084222794, -0.1474265307188034, 0.04026802256703377, -0.022429168224334717, -0.16021884977817535, -0.15343061089515686, 0.12132653594017029, -0.06105899065732956, -0.1643069088459015, 0.0005126860924065113, 0.06271761655807495, 0.10780094563961029, -0.15469424426555634, 0.0017270772950723767, 0.06575095653533936, -0.04900835081934929, -0.11184189468622208, -0.04881070926785469, -0.08658042550086975, -0.03604459390044212, -0.09565503895282745, -0.1284535974264145, -0.14843082427978516, 0.041372545063495636, -0.07016866654157639, -0.007715686224400997, 0.05668963864445686, 0.06498178839683533, -0.016500255092978477, -0.015460565686225891, -0.17462947964668274, -0.11432670056819916, -0.06339050829410553, -0.011191514320671558, -0.15849970281124115, -0.1674710363149643, -0.0455639623105526, -0.07418663799762726, -0.44970813393592834, -0.10300767421722412, -0.025952821597456932, -0.15738511085510254, 0.024403462186455727, -0.058657482266426086, -0.09389760345220566, -0.12619008123874664, -0.054990820586681366, -0.08557245135307312, 0.008849154226481915, -0.041481371968984604, -0.11749233305454254, 0.011640187352895737, -0.038545724004507065, -0.08495478332042694, -0.13490401208400726, -0.06280689686536789, -0.03418697416782379, -0.10729432106018066, -0.2841954231262207, -0.12084674090147018, -0.09582489728927612, 0.028577197343111038, 0.007483065593987703, -0.0832199826836586, 0.09077401459217072, 0.0036295612808316946, -0.04243116453289986, -0.07261208444833755, -0.3864172399044037, -0.2568094730377197, 0.00960502028465271, -0.08598712086677551, -0.13388192653656006, 0.022678900510072708, -0.03620770573616028, -0.11442157626152039, -0.1022021695971489, -0.08015419542789459, -0.14071214199066162, -0.07255395501852036, -0.3843774199485779, -0.0738685131072998, 0.051993150264024734, -0.15748827159404755, -0.050042152404785156, -0.12994401156902313, -0.37360337376594543, -0.11610157042741776, -0.01682860590517521, -0.0020204391330480576, -0.13240419328212738, 0.039458416402339935, -0.07383578270673752, -0.12283918261528015, -0.007124328054487705, -0.267582505941391, -0.009336953051388264, -0.06809011101722717, -0.10033813118934631, -0.014258956536650658, -0.01265576109290123, -0.16212929785251617, -0.377780020236969, -0.045805126428604126, -0.17985069751739502, 0.004862443543970585, -0.13269415497779846, 0.07665562629699707, -0.17112086713314056, -0.22330830991268158, -0.3225350081920624, -0.18705448508262634, 0.14708001911640167, -0.26243653893470764, 0.08251675963401794, 0.023555248975753784, -0.12333551794290543, -0.4020054042339325, -0.0704420953989029, -0.029908783733844757, -0.04425625503063202, -0.49557480216026306, -0.4335387051105499, -0.3368687927722931, -0.016076382249593735, -0.009296119213104248, -0.030369780957698822, -0.0532618910074234, 0.04359801486134529, -0.3229529857635498, -0.056078001856803894, -0.025696082040667534, -0.360911101102829, -0.15840840339660645, -0.12166178226470947, -0.027554815635085106, -0.42362746596336365, -0.007758659776300192, -0.11731837689876556, -0.05549032986164093, -0.00382394646294415, -0.31814831495285034, 0.039291493594646454, -0.019786521792411804, -0.3969939053058624, -0.47058695554733276, -0.03251900151371956, -0.28391093015670776, -0.10228866338729858, -0.12508109211921692, -0.39061906933784485, -0.16272126138210297, -0.38498425483703613, -0.07037126272916794, -0.3583042323589325, -0.09160899370908737, -0.11155668646097183, 0.013559103012084961, -0.41429993510246277, 0.013985108584165573, -0.12960828840732574, -0.04521144926548004, 0.12889155745506287, -0.06173165142536163, -0.1242365688085556, -0.34115928411483765, -0.3489688038825989, 0.05602521449327469, 0.013549264520406723, -0.04034135490655899, 0.039618682116270065, 0.08646730333566666, -0.34134307503700256, -0.14278244972229004, -0.12314052879810333, -0.05398986488580704, 0.038450032472610474, -0.2599254846572876, 0.0373237170279026, -0.09528916329145432, -0.16773319244384766, -0.33040791749954224, 0.039296746253967285, -0.04957239329814911, -0.2585274577140808, -0.04657319560647011, -0.3779084086418152, -0.28171026706695557, -0.1648644655942917, 0.04404454305768013, -0.08266425877809525, -0.05228964239358902, -0.13580840826034546, -0.01795736886560917, -0.10961615294218063, -0.0006526894285343587, -0.14672386646270752, -0.2521040439605713, -0.0720427930355072, -0.06478290259838104, -0.1048666462302208, -0.04190009832382202, -0.1397709995508194, -0.04524419084191322, 0.10209013521671295, 0.06804663687944412, -0.11294585466384888, -0.12070240080356598, -0.4626106023788452, 0.023025834932923317, 0.05240609869360924, -0.27600619196891785, -0.06641513109207153, -0.08598877489566803, -0.398032546043396, -0.28188493847846985, 0.023512043058872223, -0.12538684904575348, 0.0037830236833542585, -0.04322361201047897, -0.29078030586242676, -0.0608951672911644, -0.24747902154922485, -0.3001091778278351, 0.031659722328186035, -0.11966941505670547, -0.030862392857670784, 0.022507350891828537, -0.039835330098867416, -0.17292137444019318, -0.22519826889038086, 0.05319678783416748, -0.03853199630975723, -0.37488433718681335, -0.19158297777175903, -0.10547597706317902, -0.1079661026597023, -0.25108543038368225, -0.40812093019485474, -0.4456022381782532, -0.150599405169487, -0.08007190376520157, -0.04162589833140373, -0.2779978811740875, -0.42590388655662537, -0.4836152195930481, -0.09961965680122375, -0.4290766716003418, -0.1274164468050003, -0.4685300588607788, -0.4160217046737671, -0.1606294959783554, -0.08632317185401917, 0.10451902449131012, -0.23000608384609222, -0.05225611850619316, -0.38222530484199524, -0.4295785427093506, -0.37180036306381226, -0.016551697626709938, -0.2730141282081604, -0.433036744594574, -0.12359632551670074, -0.3604656159877777, -0.17917793989181519, -0.3571270704269409, 0.031521961092948914, 0.0833079069852829, -0.4036591351032257, -0.1707230657339096, -0.4106198251247406, -0.30026769638061523, -0.30020639300346375, -0.3901061415672302, -0.3111962676048279, -0.39397910237312317, -0.14300240576267242, -0.15139634907245636, -0.31913673877716064, -0.4912102222442627, -0.12424932420253754, -0.40264880657196045, -0.38063478469848633, -0.17965716123580933, -0.2766571342945099, -0.020902065560221672, -0.24197165668010712, -0.2644754648208618, -0.28396880626678467, -0.31484490633010864, -0.10232125967741013, -0.07696125656366348, -0.721238911151886, 0.030634431168437004, -0.3391210734844208, -0.09997294843196869, -0.23231340944766998, -0.013412673026323318, 0.6206504702568054, 0.6700708866119385, 0.6580528616905212, -0.324225515127182, -0.30753952264785767, -0.4259372651576996, -0.49332401156425476, 0.08020607382059097, 0.19511966407299042, -0.40905603766441345, 0.47032395005226135, -0.06562177836894989, 0.046404678374528885, -0.057419970631599426, -0.056104499846696854, 0.07804182171821594, -0.018774906173348427, -0.1667713224887848, -0.0659790188074112, -0.09154731035232544, -0.2547914981842041, -0.12935036420822144, -0.05595341697335243, 0.023585274815559387, -0.34464988112449646, 0.15386034548282623, -0.19190463423728943, -0.10314522683620453, 0.006165340542793274, -0.0549008809030056, -0.2890448570251465, -0.2346712052822113, -0.21181435883045197, -0.08929118514060974, -0.07859773188829422, -0.09479644894599915, -0.1114354282617569, -0.03432594612240791, -0.28426408767700195, -0.3174755871295929, 0.2076929658651352, -0.15055744349956512, 0.1631794571876526, 0.13640104234218597, -0.25930094718933105, 0.17224395275115967, -0.21094053983688354, 0.05637869983911514, -0.3522968590259552, -0.08022916316986084, -0.21278411149978638, -0.04994415119290352, -0.2658901512622833, -0.1399187445640564, -0.2140776813030243, 0.026355162262916565, 0.025312090292572975, 0.2517499029636383, 0.001728726434521377, -0.14529436826705933, -0.1794709712266922, 0.0019078360637649894, -0.05098087713122368, -0.07674438506364822, 0.06596199423074722, -0.1136610135436058, -0.11281091719865799, 0.03295377269387245, -0.12153399735689163, -0.01892111264169216, -0.13016657531261444, -0.016000080853700638, -0.005301162600517273, 0.04432088881731033, 0.04827452078461647, -0.08602521568536758, -0.0006745413993485272, -0.15722422301769257, -0.12939545512199402, 0.007289273664355278, -0.016437198966741562, 0.013727005571126938, 0.014040259644389153, -0.15573345124721527, -0.10493523627519608, 0.05399740859866142, -0.15549665689468384, 0.006295600440353155, -0.16038818657398224, 0.0022473379503935575, 0.025760259479284286, -0.11720731854438782, -0.08862198889255524, -0.02787787653505802, -0.07446491718292236, -0.14672353863716125, 0.032877933233976364, -0.051810622215270996, -0.08795537799596786, -0.10352185368537903, -0.05335618928074837, 0.024498019367456436, -0.033914390951395035, -0.040949251502752304, -0.05433966591954231, -0.08156130462884903, 0.01092011108994484, -0.00493115559220314, -0.08678555488586426, 0.0028997035697102547, -0.07328195124864578, -0.016475385054945946, -0.03253834694623947, -0.18379521369934082, 0.035138506442308426, 0.009335062466561794, -0.01902599260210991, -0.005951098166406155, 0.06433597207069397, -0.08093705028295517, -0.10535451769828796, -0.10729821026325226, -0.12616375088691711, -0.07239723950624466, -0.17842058837413788, -0.06664203852415085, -0.05005953833460808, -0.05441593751311302, 0.08535005897283554, -0.14495404064655304, -0.060039032250642776, -0.2338755577802658, -0.042623456567525864, -0.06524752825498581, -0.08849706500768661, -0.11807285994291306, -0.0186436977237463, 0.1007138043642044, -0.015675505623221397, -0.23732465505599976, -0.053817395120859146, -0.08593860268592834, -0.08674504607915878, -0.3150588870048523, -0.048173949122428894, -0.042303506284952164, -0.2948468327522278, -0.15517902374267578, -0.2737758159637451, 0.08327286690473557, -0.0776556208729744, -0.05342431366443634, -0.09622647613286972, -0.14911073446273804, -0.05107565224170685, 0.05320253595709801, 0.08388873934745789, -0.1529659926891327, -0.14997179806232452, -0.2628626823425293, -0.1743767261505127, 0.03191964328289032, 0.08137374371290207, -0.03334575891494751, 0.03122251108288765, -0.029244445264339447, -0.15731948614120483, -0.1738019585609436, 0.013278183527290821, -0.16467717289924622, -0.1393146812915802, 0.04173089191317558, -0.19995975494384766, -0.05721690505743027, -0.005593256559222937, 0.06254665553569794, -0.07008956372737885, -0.16916638612747192, 0.05791999027132988, -0.04428119212388992, -0.099886953830719, -0.11410514265298843, 0.07057249546051025, -0.09591539949178696, -0.008441144600510597, 0.05007806792855263, -0.22558408975601196, -0.18600048124790192, -0.373028963804245, 0.036135848611593246, 0.04410947859287262, -0.17364871501922607, -0.27044469118118286, 0.03300612047314644, -0.16643695533275604, -0.2756098210811615, -0.09410358965396881, 0.015340535901486874, -0.2852351665496826, -0.022373288869857788, -0.00203581596724689, -0.0538116917014122, -0.09001921117305756, -0.27475595474243164, -0.016479281708598137, 0.05007554963231087, 0.02937759831547737, -0.1536475569009781, -0.23165284097194672, -0.21298158168792725, -0.21502961218357086, -0.1210826113820076, -0.037684742361307144, -0.16699343919754028, -0.011074748821556568, -0.022990116849541664, -0.030919162556529045, -0.37454330921173096, -0.009130639024078846, -0.09218847751617432, -0.03672365844249725, -0.028135957196354866, -0.2492385357618332, -0.3112676441669464, -0.004884920548647642, -0.29346486926078796, -0.11552183330059052, -0.2583739161491394, -0.05187348648905754, -0.1362721025943756, -0.3314434885978699, -0.34433478116989136, 0.0416114404797554, -0.2492007315158844, 0.144314706325531, 0.010589993558824062, 0.03720244765281677, 0.020859520882368088, -0.2623375654220581, -0.05180606618523598, 0.010195712558925152, -0.12513130903244019, -0.16231560707092285, 0.09852847456932068, -0.12905606627464294, -0.10163936764001846, 0.01798553392291069, -0.1618245244026184, 0.038517653942108154, 0.14316928386688232, -0.03552951291203499, -0.1613471806049347, -0.3758246898651123, 0.021366171538829803, 0.007719031069427729, -0.019932111725211143, -0.22683356702327728, -0.2803546190261841, -0.2794298827648163, -0.3849758207798004, -0.453441858291626, -0.17208527028560638, -0.04438859596848488, -0.3450888693332672, -0.11386826634407043, 0.06945326924324036, 0.11373358219861984, -0.2511221468448639, -0.03337669000029564, -0.1893446147441864, -0.42832812666893005, -0.19640184938907623, -0.22889600694179535, -8.50807991810143e-05, -0.08130195736885071, -0.016733359545469284, -0.15320241451263428, -0.03680846840143204, -0.3479038178920746, -0.4292672276496887, 0.018696216866374016, -0.01757116988301277, -0.2607310712337494, -0.31950274109840393, -0.11730127036571503, -0.3265346586704254, -0.2562567889690399, -0.41723230481147766, -0.11583372205495834, -0.008246392011642456, -0.14459696412086487, -0.2879071831703186, -0.27101895213127136, -0.4584461450576782, -0.3908131718635559, -0.31365159153938293, -0.0010765253100544214, -0.3743114471435547, -0.13974840939044952, 0.002801007591187954, -0.4304206669330597, -0.15973614156246185, -0.19611097872257233, -0.4108390808105469, -0.3255530893802643, -0.3897983133792877, -0.17368163168430328, 0.036665234714746475, -0.21806231141090393, -0.40288397669792175, 0.005726526957005262, -0.2692278027534485, 0.015521835535764694, -0.09459985792636871, -0.3421494662761688, -0.20475038886070251, -0.3168953061103821, -0.03005722537636757, -0.2959584593772888, -0.7029665112495422, 0.40612903237342834, -0.48204517364501953, -0.4972473680973053, -0.07252532988786697, 0.2611755132675171, -0.46241962909698486, -0.5616275072097778, -0.14411106705665588, -0.0038223692681640387, -1.3451550006866455, 0.9124739766120911, -1.5520256757736206, -0.033647507429122925, 0.5882375240325928, -0.36735236644744873, -0.20753012597560883, 0.27887973189353943, -0.094667449593544, -0.0425475649535656, 0.1815069317817688, 0.16445334255695343, -0.4140785038471222, 0.5272648930549622, -1.1733450889587402, 1.0478668212890625, -0.015485732816159725, -0.5269066095352173, -0.5059999823570251, -0.01182432472705841, -1.0184917449951172, -1.0393869876861572, 0.16264495253562927, 0.36119362711906433, -0.6055943369865417, -0.38872861862182617, -0.5036698579788208, -0.24328766763210297, -0.09722409397363663, -0.6604880690574646, -0.08036479353904724, 0.4590193033218384, -0.10116443037986755, 0.06198608875274658, -0.14950741827487946, -0.08577950298786163, -0.6563881039619446, 0.31540462374687195, 0.5532358288764954, -1.3361084461212158, 0.07027143985033035, -0.340361624956131, 0.0124970693141222, -1.7248834371566772, -0.218648299574852, -1.4319021701812744, 0.13141807913780212, 0.18610143661499023, -0.1142793521285057, -0.05259013548493385, 0.0024138861335814, 0.07079755514860153, 0.07719754427671432, -0.0025329100899398327, 0.08942319452762604, 0.12556013464927673, 0.11712167412042618, -0.12964557111263275, -0.30132046341896057, 0.16180239617824554, 0.2785220742225647, -0.07171465456485748, 0.1282244473695755, 0.016618840396404266, -0.12860263884067535, 0.15173614025115967, 0.1352427452802658, 0.1223611980676651, -0.09424187242984772, -0.02340514399111271, -0.0626031681895256, -0.146384134888649, 0.08842916786670685, 0.23488900065422058, -0.0900401771068573, -0.1362224966287613, 0.2698098123073578, -0.19009748101234436, -0.02938098832964897, 0.16892212629318237, 0.20200076699256897, 0.050956834107637405, -0.6971006989479065, -0.12165306508541107, 0.04556157439947128, -0.008063041605055332, 0.6559117436408997, 0.0393156036734581, 0.22723031044006348, -0.05629141256213188, 0.029611127451062202, 0.44049277901649475, 0.34749487042427063, 0.15488529205322266, 0.17344704270362854, -0.17238593101501465, -0.09382470697164536, -0.06905272603034973, 0.061493534594774246, -0.07142715901136398, 0.4065943956375122, 0.3536657989025116, 0.12818485498428345, 0.033061616122722626, 0.055972665548324585, -0.06934008747339249, 0.017024364322423935, 0.06160004064440727, 0.32655590772628784, 0.09421459585428238, 0.07444198429584503, -0.18738706409931183, -0.07543551921844482, 0.20880940556526184, -0.04189455509185791, -0.43114566802978516, -0.16801197826862335, -0.20398521423339844, -0.10657935589551926, -0.1299353837966919, -0.08516055345535278, -0.14969667792320251, 0.045662589371204376, -0.05814597010612488, -0.2707468271255493, -0.1219835951924324, 0.07821018993854523, -0.06470965594053268, -0.10495401173830032, -0.036764293909072876, 0.01820416934788227, -0.011853023432195187, -0.0760018527507782, -0.14914235472679138, -0.12404098361730576, -0.3307551443576813, -0.31090351939201355, 0.09783416986465454, 0.17084664106369019, -0.3266545832157135, -0.3932884633541107, 0.006060016341507435, -0.037377528846263885, -0.07189922034740448, 0.04261202737689018, -0.399874210357666, -0.06543775647878647, 0.06186378002166748, -0.006085261236876249, 0.17726121842861176, -0.26201722025871277, -0.0723021999001503, -0.0233671385794878, -0.0966528058052063, -0.12193352729082108, -0.008873369544744492, -0.01981518417596817, -0.40887054800987244, -0.18203185498714447, -0.18306918442249298, -0.42553603649139404, -0.13460470736026764, -0.05040006712079048, -0.3181682229042053, -0.4433079659938812, 0.027726873755455017, -0.08778540045022964, -0.10102232545614243, -0.057822659611701965, -0.23126782476902008, -0.14548583328723907, -0.2565109133720398, -0.19912120699882507, 0.1442178636789322, -0.2020493447780609, -0.15468809008598328, -0.03632456064224243, -0.08318673074245453, -0.164178267121315, -0.4528324007987976, 0.03991246223449707, -0.2692241668701172, 0.04493124783039093, 0.15811234712600708, -0.0022568481508642435, -0.32831093668937683, -0.3134831488132477, -0.3085820972919464, -0.33927121758461, -0.11347999423742294, -0.17307445406913757, -0.0268220454454422, -0.09558452665805817, 0.03936196491122246, -0.3432977497577667, 0.05460217595100403, -0.08716306835412979, 0.05870923399925232, -0.021402673795819283, -0.16823287308216095, -0.19257235527038574, 0.10780974477529526, 0.05246012657880783, 0.02723027765750885, -0.03847431391477585, -0.11377730965614319, -0.38916659355163574, -0.007369154132902622, -0.22102013230323792, -0.015921154990792274, -0.39270079135894775, 0.015098914504051208, -0.1434355080127716, -0.030366577208042145, -0.46999508142471313, -0.097609743475914, -0.09791941940784454, 0.0015094229020178318, -0.12068785727024078, 0.0017418531933799386, -0.12446966022253036, -0.25423216819763184, -0.40834543108940125, -0.04992395639419556, -0.3599775731563568, 0.04699134826660156, -0.2718796133995056, -0.247215136885643, -0.38549143075942993, -0.14639034867286682, -0.05433587357401848, -0.2820979654788971, -0.10000916570425034, 0.03394746780395508, -0.004720568656921387, -0.3082326352596283, -0.3885561525821686, 0.07597312331199646, -0.09635630249977112, 0.09559763967990875, -0.014432117342948914, 0.20187035202980042, 0.1733812689781189, -0.17723138630390167, 0.0935506522655487, 0.09740842133760452, 0.04165707901120186, 0.1059299036860466, -0.0865674763917923, -0.06823785603046417, -0.005143963731825352, 0.149305060505867, -0.013185684569180012, 0.2300482839345932, -0.03234688937664032, 0.08576643466949463, 0.15335974097251892, 0.15154752135276794, 0.11256462335586548, 0.02101530320942402, 0.021167289465665817, 0.15516437590122223, -0.11833013594150543, 0.09669005125761032, -0.5693424940109253, -0.11254137009382248, -0.04206779599189758, 0.014577829279005527, 0.03132615610957146, -0.06775440275669098, -0.16068977117538452, 0.10794935375452042, -0.10967251658439636, 0.6275178790092468, -0.12291896343231201, -0.10184517502784729, -0.1510215848684311, 0.0624382309615612, 0.11187770962715149, 0.08104675263166428, 0.005986914969980717, -0.1201183944940567, 0.04943450912833214, -0.007075050380080938, -0.05492573231458664, -0.11704201996326447, -0.1481350064277649, -0.04723618924617767, -0.06087347865104675, -0.11111097037792206, -0.12767966091632843, 0.09108197689056396, 0.021102625876665115, 0.02817552536725998, 0.15562602877616882, -0.1512942910194397, -0.18209517002105713, 0.12944748997688293, 0.10750821232795715, 0.1405380815267563, -0.030592402443289757, -0.14046211540699005, -0.15968294441699982, -0.058539725840091705, 0.1845550835132599 };
static const Eigen::Map<const Eigen::Matrix<float, 32, 64, Eigen::RowMajor>> POSITION_WEIGHTS_1(POSITION_WEIGHTS_DATA_1);
static const float POSITION_BIASES_DATA_1[] = { -0.20796917378902435, -0.16415363550186157, -0.015341391786932945, 0.13716328144073486, -0.21328794956207275, -0.7886942028999329, 0.021418871358036995, -0.42177489399909973, -0.7746593356132507, -0.4112223982810974, -0.40791764855384827, -0.16955146193504333, -0.32600340247154236, -0.046314649283885956, -0.7359132170677185, -0.12357055395841599, -0.046070851385593414, -0.018088119104504585, -0.3365614414215088, -0.3547093868255615, -0.35784658789634705, -0.29293811321258545, -0.43201789259910583, -0.09405048936605453, -0.1265989989042282, -0.37498003244400024, -0.34940457344055176, -0.7136893272399902, -0.14708220958709717, -0.3397800326347351, -0.35353970527648926, 0.5132858157157898 };
static const Eigen::Matrix<float, 32, 1> POSITION_BIASES_1(POSITION_BIASES_DATA_1);

static const float POSITION_WEIGHTS_DATA_2[] = { -0.0599781759083271, -0.04131313040852547, -0.3810798227787018, -0.40087705850601196, -0.001887173275463283, -0.3851449191570282, -0.4105750024318695, 0.035439249128103256, -0.11865565925836563, -0.12984971702098846, -0.22981923818588257, 0.06644175201654434, 0.010869419202208519, -0.16806304454803467, -0.029066137969493866, -0.22622503340244293, 0.049388591200113297, 0.05699736252427101, 0.04589506611227989, -0.005605156999081373, 0.0936640277504921, -0.15433137118816376, -0.13515114784240723, 0.08745893090963364, 0.08420880883932114, 0.04546239972114563, -0.07073883712291718, -0.16297335922718048, -0.07947254180908203, -0.19056516885757446, 0.029016777873039246, -0.4914906919002533, 0.15842901170253754, -0.13739487528800964, 0.07094694674015045, -0.15593814849853516, 0.29396289587020874, 0.013122600503265858, -0.0602186881005764, -0.31174901127815247, 0.1292629837989807, -0.11822953075170517, -0.07832962274551392, 0.06031601503491402, 0.3567669987678528, -0.051740799099206924, -0.29324549436569214, 0.042818836867809296, 0.23445965349674225, 0.2021261304616928, -0.024438900873064995, 0.040530696511268616, 0.0352657251060009, 0.19992318749427795, 0.030909458175301552, 0.02288450114428997, 0.16288462281227112, 0.014096157625317574, -0.1260516196489334, -0.032552964985370636, 0.15688960254192352, -0.2301837056875229, 0.1952887326478958, 0.02343692071735859, -0.09767559170722961, 0.02113938331604004, -0.49468186497688293, -0.28672677278518677, -0.08865739405155182, -0.1558300107717514, -0.21135413646697998, -0.12615841627120972, 0.10765217244625092, 0.14766283333301544, 0.07688162475824356, 0.10036886483430862, -0.11563991010189056, -0.06733835488557816, -0.19318263232707977, -0.08377601206302643, -0.055607665330171585, -0.16272352635860443, 0.10134972631931305, -0.047335460782051086, 0.17433129251003265, 0.1273496448993683, 0.12486041337251663, -0.12908686697483063, -0.09482916444540024, -0.020987486466765404, -0.07796557992696762, 0.06669758260250092, -0.20160306990146637, 0.1039307564496994, -0.04953818395733833, -0.3414140045642853, 0.052497200667858124, -0.011421219445765018, -0.13724170625209808, -0.1774870753288269, 0.10240896046161652, -0.1705949455499649, -0.0732143446803093, 0.0289914533495903, 0.05109664052724838, 0.07319558411836624, 0.07078737765550613, 0.09661106765270233, 0.05639050155878067, 0.09360647201538086, -0.032170578837394714, -0.00016062847862485796, 0.1111135184764862, 0.08077317476272583, 0.07345622777938843, -0.1840885430574417, -0.14853380620479584, 0.08926485478878021, 0.0061380621045827866, -0.09623722732067108, 0.06921421736478806, -0.11213670670986176, 0.021652257069945335, -0.06880661100149155, -0.27047833800315857, -0.08523045480251312, 0.17167161405086517, 0.0012705508852377534, 0.16104382276535034, 0.10117962956428528, -0.11855947971343994, -0.0384448878467083, 0.2045518159866333, 0.0526619516313076, 0.1470581293106079, -0.2274160534143448, -0.13445225358009338, 0.3026542365550995, -0.14567020535469055, 0.03830508142709732, 0.10420771688222885, 0.15223339200019836, 0.31416216492652893, -0.06038110703229904, 0.013309207744896412, 0.09564109891653061, 0.1816619634628296, 0.2821442782878876, -0.06658459454774857, -0.26118141412734985, 0.039383698254823685, 0.21139605343341827, 0.20872829854488373, -0.07852719724178314, -0.08083996176719666, 0.270408570766449, 0.03532439470291138, -0.2653733193874359, -0.057567983865737915, -0.08380647003650665, 0.10689450800418854, -0.18697473406791687, 0.0037802003789693117, -0.1840917319059372, -0.18148311972618103, -0.0930810272693634, -0.0589100681245327, -0.12620100378990173, 0.015278487466275692, -0.058743320405483246, -0.18942153453826904, -0.17670240998268127, -0.012223470956087112, 0.07229706645011902, -0.18794448673725128, -0.20927414298057556, 0.0277810450643301, -0.06281857192516327, -0.127044677734375, -0.02850581333041191, 0.07951124757528305, -0.2145877629518509, 0.09133581072092056, -0.14026884734630585, -0.014808583073318005, -0.09609874337911606, -0.1490439623594284, -0.03185676038265228, -0.14269506931304932, 0.011312766931951046, -0.08631624281406403, -0.24057607352733612, -0.10072638839483261, -0.03579645976424217, -0.4642206132411957, -0.0328901968896389, -0.21453778445720673, -0.18431030213832855, -0.292412132024765, -0.163361057639122, 0.013895525597035885, -0.08488865196704865, -0.011112713254988194, -0.13649508357048035, 0.17475204169750214, -0.04287541285157204, -0.043211065232753754, -0.16493333876132965, -0.1757442057132721, -0.03336166962981224, -0.10661189258098602, 0.0030422008130699396, -0.027166122570633888, -0.051562175154685974, -0.07939883321523666, 0.08728004992008209, -0.1817159652709961, -0.05859118327498436, 0.04433071240782738, -0.16626758873462677, -0.3504196107387543, 0.11968275159597397, -0.13236477971076965, -0.2766034007072449, -0.10024373233318329, 0.04522949829697609, 0.04605405777692795, 0.003674252424389124, -0.2418704330921173, 0.12092707306146622, -0.06837666779756546, 0.28392305970191956, -0.15162774920463562, -0.04265749827027321, 0.05153491720557213, -0.00625363877043128, -0.09434628486633301, 0.00781756266951561, -0.2857850193977356, 0.027986740693449974, 0.129479318857193, 0.09276901185512543, -0.02903374657034874, -0.19163203239440918, -0.10853362828493118, -0.3826613426208496, 0.05618993192911148, 0.19746465981006622, 0.03233752399682999, -0.09950816631317139, 0.3529741168022156, 0.24204488098621368, -0.0034389477223157883, -0.24064379930496216, -0.30171820521354675, -0.19693538546562195, 0.049057960510253906, -0.017966758459806442, -0.008286774158477783, 0.0569227859377861, 0.13074974715709686, 0.011881764978170395, -0.08763108402490616, -0.09057170152664185, 0.03330526128411293, 0.112589992582798, -0.08528979122638702, -0.04342634230852127, -0.02997218258678913, -0.1522069275379181, -0.1082737147808075, 0.009454218670725822, -0.09733527898788452, -0.03562527522444725, -0.056455619633197784, 0.017522888258099556, -0.058602578938007355, -0.1253340244293213, -0.11679641902446747, 0.11935637146234512, 0.1531531661748886, 0.0960233137011528, 0.1577170193195343, -0.12488303333520889, -0.1471964418888092, 0.03009510412812233, 0.059693675488233566, -0.19216841459274292, -0.008709562011063099, -0.058440376073122025, -0.10705789178609848, -0.0153157077729702, 0.14538608491420746, -0.04144268110394478, -0.12489920109510422, 0.08224335312843323, 0.10400257259607315, -0.1739697903394699, 0.004551395773887634, 0.10602117329835892, -0.05802017077803612, 0.11332250386476517, 0.15676844120025635, 0.01643252931535244, -0.09108831733465195, 0.15194641053676605, 0.020906880497932434, 0.11549565941095352, -0.0046321069821715355, -0.1561528891324997, -0.13439729809761047, -0.07853569835424423, -0.13566598296165466, 0.15235885977745056, 0.09601077437400818, -0.14426493644714355, -0.03665850684046745, -0.022843211889266968, -0.03641122952103615, -0.2686692476272583, 0.10201852768659592, -0.14270830154418945, -0.20414485037326813, -0.09878741204738617, -0.09880831092596054, -0.1459953933954239, -0.13232183456420898, 0.05262402817606926, -0.09024228155612946, 0.017103426158428192, -0.13187125325202942, 0.04054282233119011, 0.017525501549243927, -0.06786026060581207, 0.010547512210905552, 0.02385028451681137, -0.09321825951337814, -0.00962317455559969, 0.09825325757265091, -0.07053417712450027, 0.010485327802598476, 0.07633420079946518, -0.07634264975786209, -0.1074451357126236, -0.1280979961156845, -0.05800984427332878, 0.028986796736717224, -0.16305910050868988, 0.0989675372838974, -0.18865187466144562, 0.06136349216103554, -0.030771464109420776, 0.06942176073789597, -0.06452233344316483, -0.28078892827033997, -0.026044562458992004, 0.15173232555389404, -0.19902116060256958, -0.36338967084884644, -0.09372011572122574, -0.2103925496339798, 0.06446757912635803, 0.15944620966911316, -0.1636999100446701, -0.03313621133565903, 0.049795426428318024, -0.13155238330364227, -0.36219072341918945, -0.16345492005348206, 0.1612861603498459, -0.0587763711810112, -0.14054907858371735, 0.01833125576376915, -0.006779446732252836, 0.017464857548475266, -0.13009779155254364, 0.10754629969596863, -0.12364557385444641, 0.05837677791714668, -0.07854840159416199, -0.05311192199587822, -0.13327066600322723, 0.08912292122840881, -0.11828147619962692, -0.04684722423553467, 0.09032566100358963, -0.10463302582502365, -0.06695929169654846, -0.16009066998958588, -0.05928143113851547, -0.2123887836933136, -0.06954094767570496, -0.14451567828655243, -0.0097924480214715, 0.1206853836774826, -0.20047606527805328, 0.07541432231664658, -0.17759141325950623, -0.019316861405968666, -0.15719005465507507, 0.10484720021486282, -0.011258305050432682, -0.041026175022125244, 0.05308029055595398, -0.039523836225271225, -0.06347126513719559, 0.0392950102686882, -0.24948638677597046, -0.14433921873569489, 0.0629974901676178, -0.011844784952700138, -0.024689102545380592, 0.07963499426841736, 0.03737407177686691, -0.2525305449962616, 0.03455770015716553, 0.09221283346414566, -0.09063377976417542, -0.33515825867652893, -0.21484197676181793, -0.17608310282230377, -0.002137498464435339, -0.28791648149490356, 0.1641237586736679, -0.0753432884812355, -0.11033003777265549, 0.009177581407129765, -0.07309268414974213, 0.037305545061826706, -0.00648492481559515, -0.16671352088451385, 0.12621447443962097, -0.081209197640419, 0.0008057634113356471, -0.12265103310346603, -0.006458814721554518, -0.15542073547840118, -0.06720934808254242, 0.13707080483436584, 0.16001705825328827, -0.02276136353611946, -0.08590094745159149, -0.1461735963821411, -0.39308038353919983, 0.04525326192378998, 0.10413780063390732, -0.03498750925064087, -0.34823161363601685, 0.01367791648954153, 0.11750642210245132, -0.46086427569389343, -0.047672003507614136, -0.10289961099624634, -0.0040054889395833015, -0.25579702854156494, -0.10439912974834442, -0.06558753550052643, 0.048787590116262436, -0.14663194119930267, 0.15549446642398834, -0.07937698811292648, -0.04648986831307411, -0.3312751054763794, 0.11456524580717087, -0.1688947230577469, -0.14551465213298798, -0.15491878986358643, 0.08116930723190308, -0.09580071270465851, 0.14531046152114868, 0.05254329368472099, 0.12896376848220825, 0.11460543423891068, -0.005978614557534456, 0.08156399428844452, -0.4396683871746063, -0.1632099449634552, -0.11352350562810898, -0.052283987402915955, -0.36944839358329773, -0.04629278928041458, 0.08697105199098587, -0.4353523254394531, -0.16508720815181732, 0.1328149437904358, -0.28180184960365295, -0.3549453616142273, 0.08706308156251907, -0.17580848932266235, 0.10623785108327866, -0.1536567658185959, -0.09551746398210526, -0.020680278539657593, -0.09809282422065735, 0.05677534267306328, 0.03255881741642952, -0.10024924576282501, 0.10610732436180115, 0.0529719702899456, 0.1558755487203598, 0.1217079758644104, 0.07615402340888977, -0.10751187056303024, -0.018418530002236366, 0.13809244334697723, 0.09542413055896759, 0.023803211748600006, 0.002297129714861512, -0.18475790321826935, 0.045163486152887344, 0.013958846218883991, -0.1394120752811432 };
static const Eigen::Map<const Eigen::Matrix<float, 16, 32, Eigen::RowMajor>> POSITION_WEIGHTS_2(POSITION_WEIGHTS_DATA_2);
static const float POSITION_BIASES_DATA_2[] = { -0.23124802112579346, 0.14505717158317566, -0.40756911039352417, -0.18750311434268951, 0.2624244689941406, -0.09229862689971924, -0.10244559496641159, 0.405271053314209, -0.25401556491851807, -0.23775498569011688, -0.13937528431415558, -0.19771987199783325, -0.14003288745880127, -0.39641842246055603, -0.3313153088092804, -0.44606709480285645 };
static const Eigen::Matrix<float, 16, 1> POSITION_BIASES_2(POSITION_BIASES_DATA_2);

static const float POSITION_WEIGHTS_DATA_3[] = { 0.2109845131635666, 0.0008915041689760983, 0.12055300921201706, -0.07418693602085114, 0.19485516846179962, 0.006801008712500334, -0.046500999480485916, 0.0003187221009284258, 0.06757078319787979, 0.27146658301353455, 0.1070769652724266, 0.008801734074950218, -0.03136890009045601, 0.10524731874465942, 0.14950498938560486, 0.07526689022779465, -0.25873297452926636, 0.0010056955507025123, 0.22874431312084198, -0.15298151969909668, -0.0008829407743178308, 0.08160905539989471, -0.1504584401845932, 0.1979914903640747, -0.017239456996321678, -0.1714973896741867, 0.038175661116838455, 0.057820163667201996, -0.032705459743738174, 0.2943553626537323, -0.17652912437915802, -0.17828209698200226, 0.105731301009655, -0.13995467126369476, 0.2156645804643631, 0.0631416067481041, -0.00044929678551852703, -0.013694098219275475, -0.2117988020181656, -0.00947196688503027, 0.06324419379234314, 0.05273343622684479, -0.026115404441952705, -0.02184721641242504, -0.14832693338394165, -0.3664785325527191, 0.09851846098899841, 0.12125752121210098 };
static const Eigen::Map<const Eigen::Matrix<float, 3, 16, Eigen::RowMajor>> POSITION_WEIGHTS_3(POSITION_WEIGHTS_DATA_3);
static const float POSITION_BIASES_DATA_3[] = { -0.049817901104688644, -0.0494903102517128, 0.18883538246154785 };
static const Eigen::Matrix<float, 3, 1> POSITION_BIASES_3(POSITION_BIASES_DATA_3);


static const float ORIENTATION_WEIGHTS_DATA_0[] = { 1.7943780422210693, 1.0499143600463867, 0.6023911833763123, 0.5289770364761353, 0.7404041290283203, 1.5938831567764282, -0.9994500875473022, -0.5830300450325012, 0.9436730742454529, 5.910073757171631, 7.256802558898926, 1.0496984720230103, 2.033926486968994, 1.8927369117736816, 2.3619883060455322, 1.9710270166397095, 2.442329168319702, 2.0921754837036133, -0.04078825190663338, -0.06022041663527489, 0.18159419298171997, -0.16049738228321075, 0.03974706307053566, 0.12029901146888733, -1.2592661380767822, -7.388070106506348, -5.744866847991943, -0.6385704278945923, 0.45730647444725037, 0.8661724328994751, -0.3054310083389282, -0.24535267055034637, 0.18159310519695282, -1.9045556783676147, 0.38631200790405273, 0.3299326002597809, 0.588442862033844, 2.6920769214630127, 4.355462551116943, 3.7596652507781982, 2.099963665008545, 0.3998374342918396, 0.6423239707946777, 2.656470775604248, 2.841578245162964, -0.05751241371035576, -0.9550227522850037, -0.11923151463270187, 1.317770004272461, -0.24778494238853455, 0.13976295292377472, 0.2619415819644928, -0.25358423590660095, -0.3775576055049896, -1.5667507648468018, -0.7735069394111633, 0.11611292511224747, -0.16004568338394165, -1.5001410245895386, -1.8573906421661377, -1.730835199356079, -2.268889904022217, -1.270365834236145, -0.1902966946363449, 0.3395933210849762, -0.2519126832485199, -0.15966841578483582, -1.1379464864730835, -1.9379119873046875, -1.6785258054733276, -0.7919383645057678, -0.03686627373099327, -1.3644053936004639, -1.5785707235336304, -1.5067129135131836, -2.45074725151062, -2.436471939086914, -1.3060243129730225, 1.7973934412002563, 1.1538395881652832, 0.529789924621582, 0.3739433288574219, 0.5892610549926758, 1.465733289718628, -0.47653964161872864, -2.060293436050415, -3.6696224212646484, -3.3376352787017822, -1.6121835708618164, -0.3220602869987488, 0.9333404898643494, 1.5163625478744507, 0.10467318445444107, -4.649917125701904, -4.172288417816162, -0.3757374584674835, 0.26204389333724976, 0.2480665147304535, -0.1766490638256073, 1.693951964378357, -0.5602258443832397, -0.4403320550918579, -0.2308565229177475, -1.9486701488494873, -0.36088812351226807, 0.6533653140068054, 0.9251635074615479, 0.4437151253223419, -2.989046573638916, -1.0527158975601196, -0.20432420074939728, 1.604337215423584, 1.0944427251815796, -2.8114593029022217, 1.2210801839828491, 4.678211212158203, 5.254635810852051, 0.05859212204813957, -1.4781749248504639, -0.1783275306224823, -1.1621909141540527, -1.7132302522659302, -1.3191877603530884, -0.27779459953308105, 0.000852901313919574, -0.4097958505153656, 0.29874667525291443, -1.7870299816131592, 0.3555728793144226, 0.29915425181388855, -0.34988927841186523, -0.21746867895126343, 0.34645402431488037, 0.04828445240855217, 0.5927315950393677, 1.502969741821289, 1.9003838300704956, 1.2738704681396484, -0.07583680003881454, -0.3292011022567749, 0.6352080702781677, 4.340487480163574, 5.4083099365234375, 1.592207431793213, 0.12310291081666946, 0.1480010449886322, 0.3330813944339752, 0.787361204624176, -0.7244411706924438, 0.07528579235076904, 0.16547845304012299, -1.3988263607025146, -2.0917563438415527, 1.5308114290237427, 1.274790644645691, 0.1612851619720459, -1.0700244903564453, -2.8447396755218506, -2.539508581161499, -0.15160034596920013, 0.15703336894512177, -0.3956056833267212, -0.36638006567955017, -0.507281482219696, 0.8472133874893188, 1.7687830924987793, 2.350639581680298, 2.8245725631713867, 0.196928933262825, 1.162104845046997, 2.0011091232299805, 1.7477718591690063, 0.8280614018440247, 0.09691647440195084, 0.3003615736961365, -0.07604052871465683, 0.5233237147331238, 3.1580886840820312, 3.787444829940796, 1.4482498168945312, 1.752622127532959, -0.46457773447036743, -0.3304769694805145, -0.5684447884559631, -0.898064374923706, 2.0037901401519775, 0.557696521282196, 0.14176569879055023, 0.5967957377433777, 2.0963568687438965, 2.484828233718872, 1.3962974548339844, 0.04427715018391609, -3.2126548290252686, 0.5947371125221252, 0.55345219373703, -0.5012468695640564, -0.6831173300743103, 0.3459327816963196, 1.741871953010559, 2.912109613418579, 2.5562875270843506, 1.1835066080093384, 0.10979430377483368, 0.4266844093799591, 0.4863438606262207, -0.5514365434646606, -0.5431269407272339, 3.2219207286834717, -0.09450037777423859, -2.607663631439209, -3.175844192504883, -1.8588191270828247, -0.5001242160797119, 0.5185149312019348, -0.02219855785369873, 0.4823349714279175, 0.05328167974948883, 0.5062538385391235, 2.413830280303955, 2.8771820068359375, 1.3669705390930176, -0.22201764583587646, -0.5044353008270264, 0.5045751929283142, 1.0688790082931519, 1.5123568773269653, 1.6078091859817505, 0.23776717483997345, 1.1494213342666626, 1.9378788471221924, 1.7044517993927002, 0.7794275283813477, 0.13239017128944397, -1.1311936378479004, -2.4068655967712402, -2.082043170928955, -0.17784427106380463, 0.10641753673553467, -0.4642139673233032, 1.2012807130813599, 1.5295113325119019, 0.9558660387992859, 0.17160972952842712, -0.20513880252838135, 0.19611531496047974, -1.540202021598816, -0.6490390300750732, -0.1584957391023636, 0.8166665434837341, 0.6045889258384705, -1.3739956617355347, -1.0891398191452026, -4.52353048324585, -3.71734881401062, -0.3960748016834259, 0.24165087938308716, 0.13342809677124023, 0.5553374290466309, 0.5407452583312988, -0.19082577526569366, -0.26638785004615784, 1.4825416803359985, 0.48009976744651794, 0.4359340965747833, 0.09886117279529572, 0.5814990401268005, 1.7572842836380005, 2.135653257369995, 1.3298777341842651, 0.1531626284122467, -0.013392376713454723, -0.05620977282524109, 0.255331814289093, 0.03498627990484238, -0.15372760593891144, 3.0664896965026855, 1.316551923751831, -0.06644506007432938, 0.09021293371915817, 0.6772180199623108, 2.3883373737335205, -0.11947620660066605, -0.4039853513240814, 0.41889870166778564, 0.862301230430603, 1.3001272678375244, 1.3312028646469116, -0.5134187936782837, -0.42066752910614014, 0.21656480431556702, 0.2552393674850464, -0.12962350249290466, 1.7325257062911987, 0.02407774329185486, 0.22353099286556244, -0.2029448002576828, -0.3332761228084564, 1.5449087619781494, -0.6033756732940674, -0.6377508044242859, -0.7831187844276428, 2.8830790519714355, -0.1572207808494568, 0.5679101347923279, 0.45359885692596436, 0.4245905578136444, 0.4538837969303131, -3.2403249740600586, 0.4552266299724579, -0.36206451058387756, -0.6395701766014099, -0.5618407130241394, -0.3242242932319641, 0.5047578811645508, 0.23385386168956757, -0.7142903208732605, 3.156744956970215, 2.97953724861145, 0.041140779852867126, 0.5947920680046082, 0.41635066270828247, -0.5272166132926941, -0.7170401215553284, -3.366987705230713, 0.703654408454895, -0.22374661266803741, -0.5750383734703064, 0.5795609951019287, 0.8447474837303162, -2.0566842555999756, -0.41417253017425537, -0.14788420498371124, -0.129353865981102, -0.07151210308074951, -1.6673997640609741, -0.09329629689455032, 0.04858984053134918, -0.028445197269320488, 0.13781975209712982, -0.09139768034219742, -0.05462735891342163, 1.6709157228469849, 0.6157100796699524, 0.778988778591156, 0.6754223108291626, 0.8555420637130737, 1.9234676361083984, 1.1811126470565796, -1.2925046682357788, -1.2436443567276, -0.5656099915504456, -0.5738133192062378, 1.146891474723816, -3.814006805419922, -0.8069342970848083, 0.6677430868148804, 0.14357277750968933, -2.0817275047302246, -4.626958847045898, -3.0570921897888184, -0.029802341014146805, 0.9087531566619873, 2.3194332122802734, 1.4120689630508423, -3.1046500205993652, 0.4403066635131836, -0.12268158793449402, 0.11519022285938263, 1.631931185722351, 1.876004695892334, 0.9116864204406738, -0.3800918459892273, -0.44933703541755676, 0.07960911095142365, 1.5780858993530273, 1.3891364336013794, 0.015763118863105774, -1.275508165359497, -1.8942866325378418, -1.4196451902389526, -0.23885294795036316, 0.07458265870809555, -0.4059714078903198 };
static const Eigen::Map<const Eigen::Matrix<float, 64, 6, Eigen::RowMajor>> ORIENTATION_WEIGHTS_0(ORIENTATION_WEIGHTS_DATA_0);
static const float ORIENTATION_BIASES_DATA_0[] = { 1.055153250694275, -7.978114128112793, 3.5355587005615234, -0.45657527446746826, -6.874785900115967, 1.0103813409805298, -3.9149158000946045, -1.8945720195770264, 0.5483373403549194, 0.28463733196258545, -0.999165415763855, 0.37618595361709595, -1.6616021394729614, 0.42959561944007874, -3.087080955505371, -4.597315311431885, 0.9378988146781921, 2.2610487937927246, -2.189126491546631, -5.0228376388549805, 0.9574331045150757, 0.9363005757331848, 1.267518162727356, -4.461894512176514, 0.11088420450687408, 3.364611864089966, -1.2389463186264038, -2.688582181930542, 0.2624419033527374, -2.1626381874084473, 2.924622058868408, 0.028521399945020676, -1.7097738981246948, -1.59306001663208, -1.66460382938385, -2.771226406097412, -0.8287450671195984, -0.8751248717308044, 0.9054371118545532, -0.24627932906150818, 0.1402301788330078, -0.5500087141990662, -3.274778366088867, 0.856570839881897, 0.6900956630706787, -0.4837135076522827, -0.6895608305931091, -0.07916662842035294, 0.9510447978973389, 0.9340278506278992, -1.595909595489502, -1.6651009321212769, -1.7316994667053223, -1.5761960744857788, -2.490304946899414, 2.3658156394958496, -0.309760183095932, -0.5018123984336853, -0.481513112783432, -3.1980457305908203, -3.0739808082580566, 2.0812625885009766, 1.000593662261963, 0.44225236773490906 };
static const Eigen::Matrix<float, 64, 1> ORIENTATION_BIASES_0(ORIENTATION_BIASES_DATA_0);

static const float ORIENTATION_WEIGHTS_DATA_1[] = { -0.03029756247997284, 0.031093716621398926, -0.15167643129825592, -0.09636077284812927, -0.031161801889538765, -0.035040587186813354, 0.05335669219493866, 0.03736208379268646, 0.08564934134483337, 0.06803607940673828, 0.09652474522590637, -0.029325272887945175, 0.06575752049684525, -0.13921517133712769, -0.1462063044309616, 0.04461634159088135, -0.1689000129699707, -0.03339673578739166, -0.0005045350990258157, 0.11447356641292572, -0.08458924293518066, 0.011679021641612053, -0.0571235753595829, -0.03753392770886421, 0.05217273533344269, 0.010916944593191147, -0.028563203290104866, -0.10780371725559235, -0.08663790673017502, -0.026119619607925415, -0.13347366452217102, 0.010651777498424053, 0.02890646457672119, -0.01006975769996643, 0.09167487919330597, 0.04704597219824791, -0.019800910726189613, -0.10913045704364777, -0.05508090928196907, -0.05933799967169762, 0.10168278217315674, 0.01663246750831604, -0.02476475201547146, -0.06077032908797264, -0.04508329555392265, 0.025298014283180237, -0.0422421395778656, 0.027043422684073448, -0.055249303579330444, -0.09700261056423187, 0.050960686057806015, -0.01005321741104126, -0.15782895684242249, -0.177043154835701, 0.0802096277475357, -0.07943770289421082, -0.05009572207927704, -0.06736050546169281, -0.10366252064704895, 0.0642755925655365, -0.10200083255767822, -0.10906947404146194, 0.10285091400146484, 0.04555892199277878, -0.024334056302905083, -0.0926666334271431, -0.16941320896148682, -0.09359617531299591, -0.2088874876499176, -0.08920646458864212, -0.1592901647090912, -0.134150430560112, -0.111021026968956, -0.10424033552408218, -0.0724056214094162, -0.09950413554906845, -0.04626774787902832, 0.010006030090153217, 0.03547167405486107, -0.15817081928253174, 0.03175801783800125, -0.04921475797891617, -0.12494906038045883, 0.004054785706102848, -0.052693210542201996, -0.14105819165706635, -0.0854313001036644, 0.013135387562215328, -0.07022100687026978, 0.015161283314228058, -0.16626441478729248, -0.17443574965000153, -0.06155536696314812, -0.05001676827669144, -0.07992640882730484, -0.04504600912332535, -0.09459132701158524, 0.006872323341667652, -0.02733396738767624, -0.20044493675231934, -0.14442667365074158, -0.052529267966747284, -0.03129669278860092, -0.061027877032756805, 0.026838842779397964, -0.18439683318138123, -0.050354696810245514, -0.041273411363363266, -0.05585005134344101, -0.1347038894891739, -0.05447906255722046, -0.022031234577298164, -0.08936179429292679, -0.08266130089759827, 0.011164561845362186, -0.0860549584031105, 0.033215057104825974, -0.07269725203514099, -0.18870706856250763, 0.005079126916825771, -0.17735841870307922, -0.1031205803155899, 0.04082182049751282, 0.007262431550770998, 0.007670126389712095, -0.13833452761173248, -0.06242663040757179, -0.08394648879766464, -0.17187374830245972, -0.12264368683099747, -0.15763214230537415, -0.05543447658419609, 0.022447166964411736, -0.12048056721687317, -0.17131464183330536, -0.11651592701673508, -0.04186652600765228, -0.14438115060329437, -0.1461344063282013, -0.002536027692258358, -0.0803392082452774, -0.17162178456783295, -0.10824311524629593, -0.06900401413440704, -0.11366736143827438, 0.02936544269323349, -0.05830417200922966, 0.019694512709975243, -0.003701405832543969, -0.07827353477478027, -0.17762480676174164, -0.03380607068538666, -0.012609084136784077, -0.004359434824436903, -0.10806206613779068, -0.07024773955345154, -0.0924096405506134, 0.13287442922592163, -0.010831807740032673, 0.011183522641658783, -0.08297464996576309, -0.05112403631210327, -0.011274241842329502, -0.009073100052773952, 0.004234232474118471, -0.12771859765052795, -0.1659700721502304, -0.12961214780807495, -0.16986186802387238, -0.11182022839784622, 0.03099391981959343, -0.005300674121826887, -0.10296753793954849, -0.12519210577011108, -0.09831953048706055, -0.16564732789993286, -0.05667055770754814, -0.08781352639198303, -0.06028008088469505, 0.09533274173736572, -0.11002518236637115, -0.0759870782494545, 0.011460866779088974, -0.10286686569452286, -0.06788458675146103, -0.10882631689310074, -0.007529495283961296, 0.030997421592473984, 0.021264510229229927, -0.16478197276592255, -0.0204907413572073, -0.19612909853458405, -0.08515777438879013, -0.024029500782489777, -0.08492857217788696, -0.08553121984004974, 0.10780274868011475, -0.0021447143517434597, -0.0719418078660965, 0.053654760122299194, 0.1232479065656662, -0.05410297214984894, -0.07183889299631119, -0.061149194836616516, 0.09316274523735046, -0.0248882919549942, 0.08496445417404175, -0.03805002570152283, -0.0932062491774559, -0.12323977053165436, 0.01666189730167389, -0.0475434809923172, -0.11370572447776794, -0.026113053783774376, -0.04546556621789932, 0.0333007276058197, -0.12397962808609009, -0.04925335943698883, -0.11248791217803955, -0.021698594093322754, -0.07116487622261047, 0.12026610970497131, -0.12169445306062698, 0.12464562058448792, 0.06935252249240875, 0.10509908199310303, -0.08748281002044678, 0.07991732656955719, -0.09019599854946136, 0.0723690390586853, 0.06396668404340744, 0.0058432649821043015, -0.09352470934391022, 0.036019742488861084, -0.03317473828792572, -0.06722033023834229, -0.0914170891046524, -0.09992319345474243, 0.08525462448596954, 0.08499270677566528, 0.024050163105130196, -0.10471544414758682, -0.011358767747879028, 0.05019569396972656, 0.10998693108558655, -0.12302137911319733, -0.10840682685375214, -0.06646159291267395, -0.019290730357170105, 0.08054158091545105, -0.07853622734546661, -0.10055138170719147, -0.031888946890830994, -0.17337101697921753, -0.09168024361133575, -0.014534428715705872, -0.07602715492248535, -0.09069278836250305, -0.1025058925151825, 0.0431082546710968, -0.0938509851694107, -0.15671437978744507, -0.02793683297932148, -0.12477873265743256, -0.01901407726109028, -0.17204846441745758, -0.13955093920230865, 0.006973664276301861, -0.10650433599948883, -0.06578832864761353, -0.1154240220785141, -0.004307642579078674, 0.004433950409293175, -0.012904586270451546, -0.02535095438361168, -0.03462383151054382, -0.017150580883026123, -0.03324656933546066, 0.003498438512906432, -0.07500270754098892, -0.028442122042179108, -0.015367729589343071, 0.016264021396636963, -0.0021357873920351267, -0.16943204402923584, -0.060069624334573746, -0.04827053099870682, -0.07565833628177643, 0.05486305430531502, 0.11517547070980072, -0.07066535204648972, -0.16155432164669037, -0.025761619210243225, 0.0566759817302227, -0.041127800941467285, -0.14662012457847595, -0.08922509849071503, -0.12830489873886108, -0.05226556956768036, -0.054861344397068024, -0.02202548459172249, -0.09738550335168839, -0.06429813802242279, -0.03083842806518078, 0.031247660517692566, -0.058824606239795685, -0.1588347852230072, 0.10597316920757294, -0.07333040237426758, -0.16182897984981537, -0.08974896371364594, 0.06549879908561707, -0.12884049117565155, -0.10396722704172134, -0.04407257214188576, -0.09893100708723068, -0.08028075098991394, 0.012788638472557068, -0.07896202057600021, -0.1385161131620407, -0.42001107335090637, -3.3816049098968506, 1.3887903690338135, 0.1540926694869995, -0.17791660130023956, -1.6944670677185059, -0.32165345549583435, -0.8563044667243958, 0.4532460868358612, -0.7008838057518005, -1.8979547023773193, 0.5146578550338745, -0.07179884612560272, 0.5566843748092651, -0.3784198760986328, -1.4300302267074585, 1.7749340534210205, 2.0696494579315186, -2.5066795349121094, 7.135219097137451, 0.9552987217903137, -1.4684327840805054, -0.08714164048433304, 0.7934630513191223, 0.008561450988054276, -3.2260239124298096, -0.252756267786026, 0.07082449644804001, -0.7592290639877319, 0.6257687211036682, 0.17505712807178497, 1.3466633558273315, 1.4388467073440552, -0.7453150749206543, -0.3871099650859833, -8.417868614196777, 1.1737247705459595, -0.2907670736312866, -0.2869953513145447, -0.5162893533706665, -0.22370553016662598, -0.6251387000083923, -0.5330550670623779, 0.46348169445991516, 0.3840351402759552, 0.053417034447193146, -0.2809411585330963, -0.6840758919715881, -0.3079337179660797, 0.6659828424453735, -0.8807514905929565, 2.2794368267059326, 0.061297256499528885, -0.25679412484169006, 0.2345808446407318, 0.5732651948928833, 0.11886978149414062, -0.2519129514694214, 0.21306736767292023, 0.5836734175682068, 5.899113178253174, -1.434706211090088, 0.41965627670288086, -0.1539156138896942, -0.7661066055297852, -18.38446807861328, 1.2234987020492554, 0.02207677811384201, -14.135610580444336, -1.0536201000213623, -1.4952250719070435, 0.06131206452846527, -1.2262784242630005, -0.48093464970588684, 0.22863127291202545, -0.16840608417987823, 0.4210657775402069, 0.6643150448799133, -0.9507075548171997, 1.3646217584609985, 0.9485313892364502, 2.4379336833953857, 0.1501699537038803, -0.250006765127182, -0.6060290336608887, -1.0979810953140259, -1.2042287588119507, 1.5380356311798096, 0.228260800242424, -1.1924893856048584, 0.687987744808197, -1.6313587427139282, -1.1273468732833862, 0.17833395302295685, 0.8169265389442444, 0.003852563677355647, -0.09964388608932495, -2.5373127460479736, -0.1974450647830963, 0.8485100269317627, 0.25651976466178894, -0.16948597133159637, -1.2513303756713867, 0.6773292422294617, -0.16400489211082458, 0.6699564456939697, 7.780824184417725, -0.7796131372451782, -0.16048258543014526, 0.0936887189745903, 0.6069084405899048, 0.2467430979013443, -0.6592516303062439, 1.3585784435272217, 0.127426877617836, 0.0181454885751009, -0.2569594979286194, -0.228463277220726, -1.5620129108428955, -0.5693693161010742, 0.22458818554878235, 1.151631474494934, 0.38248395919799805, 1.1457806825637817, 0.9793688058853149, -1.9663362503051758, 0.26758790016174316, 1.8047518730163574, -0.6049798727035522, -0.42615190148353577, 1.8282142877578735, 0.036663562059402466, -1.6730897426605225, 1.0867269039154053, 0.38543471693992615, 1.8143815994262695, 0.5789199471473694, 0.41324570775032043, 0.6835717558860779, -0.1426306664943695, -2.029916763305664, -0.9995116591453552, 0.1753140687942505, 1.024585485458374, -0.3988321125507355, -0.6226924657821655, 0.031039875000715256, 2.0028178691864014, 1.4185787439346313, -1.5051757097244263, -1.0385856628417969, 0.10352828353643417, -0.1728382259607315, 0.9006518125534058, 1.5952900648117065, -0.8762484192848206, 0.000221382433664985, 0.19592277705669403, 0.0833025872707367, -0.7465267777442932, -0.11253928393125534, 0.21055705845355988, 0.37754252552986145, -0.12969715893268585, -0.0639718696475029, -0.31569549441337585, 0.08856993913650513, -0.37522560358047485, 1.2777464389801025, 2.9927191734313965, -0.5902758240699768, -0.3416891396045685, -1.033507227897644, 0.2240714579820633, 0.5109116435050964, 0.1747252345085144, 0.6801961660385132, 0.12088459730148315, -0.2716337740421295, -0.2509998381137848, -0.5313610434532166, -0.3866870701313019, -0.5402759313583374, -5.336686611175537, 0.10564936697483063, -1.3157860040664673, 1.4144048690795898, -4.523061752319336, 0.72410649061203, 0.43515557050704956, 2.368248224258423, 1.6820354461669922, 1.9171228408813477, 2.824331760406494, -0.04060392081737518, -0.02364181913435459, 1.0399930477142334, -0.17435362935066223, -16.63991928100586, 1.20990788936615, -0.6089467406272888, 4.021234035491943, -1.448976993560791, 1.077845573425293, -1.4360082149505615, 1.3339495658874512, -0.5188607573509216, 0.04156880080699921, 0.09314152598381042, -2.0637919902801514, -0.09409046918153763, 0.05065902695059776, -0.8953838348388672, -0.006765343714505434, 1.1555029153823853, -3.2006547451019287, -0.27396366000175476, -0.683972954750061, 0.6982633471488953, -0.15125121176242828, -0.5445897579193115, -0.1752476692199707, -0.654903769493103, 0.8290199041366577, 0.7600833177566528, -0.8525416254997253, -0.3548654615879059, -1.3112512826919556, -0.856400191783905, 0.27332279086112976, -1.4905577898025513, 2.0126636028289795, -2.0189332962036133, -1.3824372291564941, 0.91963130235672, -2.509868860244751, 0.1846536248922348, 0.05787332355976105, 0.9522476196289062, 0.6514022350311279, -0.007643000688403845, 2.652822256088257, 0.1738712042570114, -0.03714445233345032, -1.7802296876907349, -0.9790539145469666, 0.2459174543619156, -0.1543399840593338, 0.04251129552721977, 1.8383375406265259, 0.6909819841384888, 0.05384259298443794, 1.092254638671875, 2.143688917160034, -0.7838670611381531, 0.16434898972511292, -0.13152600824832916, -0.04037487506866455, 0.02296452410519123, 0.07419927418231964, 0.11531795561313629, -0.16387327015399933, -0.1078893169760704, -0.11986580491065979, 0.05162849277257919, -0.00019706663442775607, 0.09545494616031647, -0.1598384827375412, -0.000999733805656433, -0.17594954371452332, -0.10474146902561188, 0.014553442597389221, -0.09953169524669647, -0.12939704954624176, 0.02956385910511017, 0.0366344153881073, 0.012047741562128067, -0.1485610455274582, -0.03739653527736664, 0.07777602970600128, -0.15891018509864807, -0.18328051269054413, 0.06502079963684082, -0.10017620027065277, -0.049808282405138016, 0.03877827525138855, -0.03726981580257416, 0.01926432177424431, 0.038700658828020096, 0.005765310488641262, 0.016932442784309387, -0.06424081325531006, -0.05362005531787872, -0.08934301137924194, 0.048322007060050964, 0.0943438857793808, -0.0630539134144783, 0.06340064108371735, 0.06123914197087288, -0.11531370878219604, -0.035480841994285583, 0.01229957863688469, -0.09982679039239883, -0.11572824418544769, -0.003977636806666851, -0.1595664769411087, -0.017565786838531494, -0.04784610867500305, -0.03344748914241791, -0.15099135041236877, -0.11845440417528152, -0.07739350199699402, 0.03291882202029228, 0.0637265294790268, -0.07561098039150238, -0.026420192793011665, -0.010231072083115578, -0.041999008506536484, -0.08051207661628723, -0.012783288955688477, 1.3943805694580078, -6.787490367889404, -2.711876153945923, 0.03277064859867096, 3.440572500228882, 1.3322230577468872, -3.904550075531006, 3.719352960586548, 1.0992536544799805, -0.6808115839958191, 1.60023832321167, 0.3381763994693756, -0.5530973672866821, 2.7071452140808105, -2.1338772773742676, 0.911441445350647, -1.0579980611801147, 0.3139294683933258, -1.5906758308410645, 0.19637362658977509, 3.402369737625122, -1.2721980810165405, 2.7474865913391113, -2.5952398777008057, -0.15595556795597076, 1.2606514692306519, -0.613856315612793, 0.18947908282279968, 0.326457142829895, -1.769135594367981, -2.0020089149475098, 0.06095957010984421, -1.3037421703338623, 2.9561400413513184, -0.026977313682436943, 0.641161322593689, -1.450952410697937, -1.0186665058135986, -0.04316180944442749, 3.0911638736724854, 2.7208075523376465, 5.631479740142822, 1.1668601036071777, 0.7228678464889526, 0.6534708142280579, 0.01479305699467659, 2.1485533714294434, -0.6998834013938904, 0.7063776850700378, -0.06321199983358383, 0.5165168046951294, -0.93918377161026, -0.7765500545501709, -0.10120777785778046, -0.3594486713409424, -13.07788372039795, 0.0720674991607666, 0.32205769419670105, 4.324102878570557, 0.05123468488454819, 0.2783958613872528, 1.3849272727966309, -1.09572172164917, 2.0535764694213867, -0.027826247736811638, 0.1878012865781784, -0.06208346039056778, -0.023313509300351143, -0.6613020896911621, -0.24581123888492584, 0.08712299168109894, 0.08013861626386642, -0.10103985667228699, -0.16468368470668793, -0.26639610528945923, -0.23542670905590057, -0.09309650212526321, 0.015063579194247723, -0.3860807418823242, 0.2499869465827942, 0.026669546961784363, -0.11770636588335037, 0.08080344647169113, -0.0550290010869503, 0.08940362185239792, -0.0775904655456543, 0.033926479518413544, -0.2182696908712387, 0.028803646564483643, -0.11312539130449295, -0.8445616364479065, -0.10067220777273178, -0.008469893597066402, -0.31987062096595764, -0.07673805207014084, 0.08088938891887665, 0.004129145294427872, 0.16141082346439362, -0.3211107552051544, -0.013703898526728153, -0.0630134791135788, 0.5417682528495789, 0.042554471641778946, -0.017957232892513275, -0.09335778653621674, -0.07713226228952408, -0.33501094579696655, -0.05603025108575821, 0.04287613183259964, 0.31739118695259094, -0.10558737814426422, -0.11517021805047989, -0.12038317322731018, 0.13994580507278442, -0.06383635848760605, 0.09012569487094879, 0.14432796835899353, 0.01657923497259617, 0.10461074113845825, -3.8711726665496826, 0.01556073036044836, -0.14986981451511383, -0.25006037950515747, 0.25101950764656067, 0.09183961153030396, 0.08041571080684662, 0.6056241989135742, -0.016487345099449158, 1.46576726436615, -0.03438533842563629, 0.4721241295337677, 0.14022623002529144, 2.3631842136383057, -0.5516576170921326, -0.07323088496923447, 1.0956469774246216, 0.5165979266166687, -0.21383686363697052, 0.7138010859489441, -1.2013511657714844, -2.584080696105957, 0.899276614189148, -2.541428327560425, -1.1649292707443237, 0.21359282732009888, -0.5133769512176514, 1.950718879699707, 1.5924773216247559, -1.231806755065918, -1.0894724130630493, -0.022577708587050438, 0.4205053746700287, -2.6878437995910645, -0.8383240699768066, 0.8993337750434875, -0.9416192770004272, 0.30979713797569275, 0.6921968460083008, -0.7569157481193542, 2.314309597015381, -1.175765037536621, -0.2981903553009033, 0.2918751537799835, 0.43069177865982056, 0.3998080790042877, -0.3437115252017975, 2.1488778591156006, 1.903067946434021, -2.749521493911743, -0.48767295479774475, 0.6944841742515564, -2.5566554069519043, 2.2939341068267822, 0.06668561697006226, 0.16972897946834564, -1.7799800634384155, 0.12622606754302979, 0.8860738277435303, 0.12156935781240463, 0.9212976694107056, -0.12619918584823608, 0.2991931140422821, -0.3326732814311981, 0.35730451345443726, 0.12792421877384186, 0.6503369212150574, 4.772514343261719, -1.096879005432129, -1.1809028387069702, -0.2434779405593872, -3.397125482559204, 0.23552623391151428, 0.9546440243721008, -23.656240463256836, 0.022694356739521027, 0.014819753356277943, -0.46110999584198, 0.7131520509719849, -0.17330865561962128, 2.389482259750366, 0.6897732615470886, -0.42376255989074707, 1.3782047033309937, 0.3049544095993042, -0.6698749661445618, 1.8931481838226318, -1.0073755979537964, 0.36038681864738464, -0.11086396872997284, -0.15509897470474243, 0.7838958501815796, 0.7721301317214966, 2.3299827575683594, -1.1010087728500366, 0.7054164409637451, -0.14311650395393372, -0.48002907633781433, 0.0830114483833313, -0.4768305718898773, 0.23035623133182526, 0.5700377225875854, -0.4793761968612671, -0.8506153225898743, -0.9013310074806213, -0.04867742583155632, -0.0643204003572464, 0.23946386575698853, 0.15241596102714539, -0.7887901067733765, -0.7651912569999695, -0.4712023437023163, 1.091328740119934, 0.7725123167037964, 2.056640625, 1.9452756643295288, 0.1023910716176033, -0.5783144235610962, 0.11371637880802155, 1.2674403190612793, -0.896065890789032, 0.6440494060516357, 0.13337714970111847, 0.06237848848104477, -0.33386290073394775, -0.5572265982627869, -0.4296265244483948, -9.465041160583496, -6.475446701049805, 0.11179421097040176, -0.15187790989875793, 1.990895390510559, 1.935676097869873, 3.200653553009033, 0.5878577828407288, 2.626528024673462, 2.0337865352630615, 0.4378640949726105, -0.16240771114826202, 0.23264260590076447, -0.47168558835983276, 1.775156855583191, -0.7525903582572937, -0.7245092988014221, -1.1744157075881958, 0.010494370013475418, 0.5704734921455383, -0.17630085349082947, -1.2162538766860962, 0.47702911496162415, 0.6124095320701599, -1.1815636157989502, 0.1548646241426468, 0.9241764545440674, 1.3835951089859009, 0.36506223678588867, 0.1021759882569313, 0.060742635279893875, 0.4761780798435211, 0.02844269759953022, 0.4788726270198822, -0.2117554396390915, 2.446572780609131, -0.025963537395000458, -0.2858164310455322, -1.2012425661087036, 0.3546867370605469, -1.003101110458374, 0.1799732744693756, -0.18831756711006165, -1.0463651418685913, -0.36599719524383545, -0.12635445594787598, 0.2735849618911743, -0.11591900140047073, -0.7515456080436707, 0.003233264433220029, -0.2204190194606781, 0.24480755627155304, 0.6761791706085205, 0.5349496006965637, 0.2363085001707077, 0.15516573190689087, 1.0248525142669678, 0.032991185784339905, -0.18267761170864105, 0.7034600377082825, 0.32215139269828796, -0.07813352346420288, 0.022492116317152977, -0.09517770260572433, -0.05895884707570076, 0.9436355233192444, -0.1104888916015625, 0.45532700419425964, -0.029900208115577698, 1.8014099597930908, 0.42577651143074036, 1.715800166130066, -0.852210283279419, -0.11313255876302719, 0.021666690707206726, 0.024617526680231094, 0.009350120089948177, -0.20423084497451782, 0.07550923526287079, 0.02519337832927704, 0.03352966532111168, -0.19752421975135803, -0.04131189361214638, -0.08547616004943848, -0.06770280003547668, -0.13672029972076416, -0.11297164112329483, -0.07410163432359695, 0.003606041893362999, -0.08905967324972153, -0.08928981423377991, -0.1827205866575241, 0.09906141459941864, -0.09561022371053696, -0.1029832661151886, -0.11920497566461563, -0.11971218883991241, 0.0069878315553069115, 0.03750487416982651, -0.10889428108930588, -0.022634120658040047, -0.09832731634378433, 0.04360322281718254, -0.06711967289447784, -0.05547867715358734, -0.17766284942626953, -0.014083891175687313, 0.005511083174496889, 0.021147992461919785, -0.10768875479698181, -0.09643793106079102, 0.008871391415596008, -0.11571073532104492, -0.1194816306233406, 0.04503472521901131, -0.09881262481212616, 0.008578664623200893, -0.16689462959766388, -0.10911481082439423, -0.010764829814434052, -0.05592188239097595, -0.012053742073476315, -0.18724794685840607, -0.03533126786351204, -0.07179326564073563, -0.08961030095815659, 0.029368087649345398, -0.15733180940151215, -0.02484195865690708, -0.05343777313828468, -0.008817787282168865, 0.07852698862552643, 0.021008294075727463, 0.02524496801197529, 0.020442210137844086, -0.1842334121465683, -0.0714227482676506, -0.07523316890001297, -0.060488585382699966, 0.5230954885482788, 3.324833631515503, 0.1516888290643692, 0.052177559584379196, -0.7203898429870605, -0.2386607974767685, 0.07251279801130295, 0.5185664892196655, -0.1538662314414978, 0.43992942571640015, -0.12159223109483719, -0.20454362034797668, 0.05056918412446976, 0.04862634465098381, 0.9010091423988342, 0.6853402256965637, -0.16974708437919617, -0.1420023888349533, -0.6097795963287354, -0.27400854229927063, -0.7793792486190796, 0.2703172266483307, 0.1449049711227417, -0.11547742038965225, 